nep4 4 Al Si O H 
cutoff 8 4 245 35
n_max 8 8
basis_size 12 12
l_max 4 2 0
ANN 40 0
  3.7695861e-03
  1.5499930e-02
  1.1605935e-03
 -2.2804435e-02
 -3.1741709e-01
 -2.1523898e+00
 -6.7431509e-02
 -3.7882730e-02
 -3.7879847e-02
 -3.0628242e-02
  3.1762894e-02
 -1.1137331e-02
  6.0421620e-02
  3.7997440e-02
  4.6708811e-02
 -2.7395166e-02
  2.3272175e-02
  2.9771587e-02
 -2.4085555e-02
 -1.9509196e-02
 -2.1367472e-02
  8.8137817e-03
  9.6878456e-03
 -3.7356701e-02
  2.6291106e-02
 -7.5753577e-02
  1.1585654e-01
 -1.0728877e-02
 -7.4500740e-02
  5.8662314e-03
 -8.1964612e-02
  4.2513762e-02
 -9.0883197e-03
  4.4030380e-03
 -2.0413535e-02
 -5.8995266e-02
 -4.2323438e-03
  6.2750980e-02
 -1.0114400e-01
 -5.5034712e-02
 -9.1063082e-03
 -9.6348442e-02
  7.8923944e-03
  1.4679031e-02
 -1.6667515e-02
 -3.0433554e-03
 -1.0476573e-03
  3.8847951e-03
 -1.2155708e-01
 -1.2146827e-02
  2.1335345e-02
 -2.9557455e-02
  8.7737637e-03
  7.3172539e-02
 -1.8541154e-01
 -3.4517345e-03
 -7.7671572e-03
  1.6719330e-02
  1.5784618e-02
 -5.9399021e-01
 -6.1786156e-03
  4.9248751e-02
  1.6194543e-02
  5.7263877e-02
  4.5245420e-03
 -2.3222668e-02
 -7.9139378e-03
 -4.9307062e-03
 -1.8880058e-02
 -1.2970246e-02
  9.8671848e-03
  8.8319248e-03
 -2.7842969e-03
 -9.9304453e-02
  9.4239213e-02
 -2.8121928e-02
  4.5742521e-01
  5.6372438e-02
  4.4215200e-03
  1.8062323e-02
  1.7856194e-02
 -4.3844637e-02
  4.8558783e-02
 -1.9449370e-02
 -2.2084273e-02
 -4.3418990e-03
 -2.0436206e-01
 -2.0713976e-02
 -4.7327080e-03
  3.6500487e-03
 -2.6481452e-03
 -1.5147752e-02
 -3.6133315e-02
  1.6674820e-01
 -1.6843788e-02
  5.2195452e-02
  1.4115459e-01
  4.0731478e-02
 -5.0962165e-02
 -1.1444097e-02
  3.6154680e-02
 -4.0021740e-02
  2.9522700e-03
  3.8227879e-02
 -2.1557817e-01
  3.1180946e-02
  6.6516725e-03
  2.5574010e-02
  5.7098135e-02
  5.3029321e-02
  4.0591974e-02
 -3.5185859e-02
 -1.1887237e-02
 -1.3411421e-02
  6.1405495e-02
  1.8524918e-01
 -8.0713406e-02
 -9.5867300e-03
 -4.9527474e-03
  1.4943294e-02
  4.0398188e-02
  2.4292659e-02
  5.1151882e-03
  8.0014035e-02
  5.4152058e-03
  2.1757785e-02
  9.5926085e-03
 -7.6572541e-03
  2.4095410e-01
  5.1094908e-02
  8.7078437e-02
  1.4238597e-01
  9.9295042e-03
  7.9933286e-02
  6.8848856e-02
 -2.8797211e-02
  3.9498582e-02
  8.0158142e-03
 -4.8530130e-03
 -2.7932687e-02
 -1.6046781e-03
 -2.2439286e-02
  5.7967398e-02
 -2.3347950e-02
 -9.3793124e-02
 -4.8870139e-02
  1.4504462e-02
 -7.0686196e-03
 -1.4551966e-02
  7.6785222e-02
 -4.8094075e-03
 -5.9554968e-03
 -2.0561021e-02
  7.2823480e-02
 -2.2904698e-02
  8.4249803e-04
  3.6385175e-02
 -2.9543526e-02
 -5.4888451e-01
 -4.4317227e-03
  5.8913775e-02
  1.2654967e-03
  8.4240809e-03
 -9.3323767e-01
  4.9650555e+00
 -1.4359020e-01
 -2.4739730e-01
  5.8684951e-01
  1.1007714e-01
  5.3344434e-01
  1.9012041e-01
 -1.7507598e-01
  8.0827996e-03
 -3.8309954e-02
  8.7264124e-03
 -3.2213602e-02
  1.1972360e-02
  4.0096112e-02
  1.7714020e-02
 -9.5527628e-03
  2.5369328e-02
 -4.9103677e-02
  2.7939387e-02
  4.3972310e-02
 -3.5678778e-02
  1.0760272e-01
 -2.1535615e-03
  1.3367072e-02
  1.0648916e-02
  2.1213539e-01
 -6.9335285e-03
  3.0276045e-01
  7.3000593e-03
 -1.5280910e-03
 -2.6270407e-01
  7.0589641e-04
 -1.3981314e-02
  1.2653196e-01
  5.1003038e-03
 -1.2574311e-02
  8.2257187e-01
 -1.5806081e-04
  2.8193843e-01
 -6.8780236e-02
  5.1593937e-02
  5.0853912e-02
  2.1253437e-02
 -2.6177825e-02
 -1.6618397e-02
  4.8410334e-03
 -1.1723877e-01
 -2.5439611e-02
  6.2022274e-03
 -9.6143521e-02
 -1.3497788e-02
  6.3097756e-03
 -4.2710105e-01
  7.1519859e-02
  2.2246677e-02
 -1.0274187e-01
  1.7332718e-01
  2.0057140e-01
 -2.1423886e-02
 -9.2467166e-02
  4.3917090e-02
  4.4135123e-02
 -4.4141173e-01
 -1.0851022e-01
 -1.8270612e-02
 -2.3633810e-02
  1.6716775e-03
 -3.1497769e-02
  1.1721297e-01
  1.9546030e-02
 -5.3766649e-02
  2.8514249e-02
  6.2772468e-02
  1.3506610e-02
  8.6849026e-02
 -3.5169683e-02
  9.0182655e-02
  2.9665403e-02
 -5.5527728e-02
 -7.0497341e-02
  5.5531889e-02
 -3.7880633e-02
 -2.3523754e-02
 -2.7586412e-02
 -8.5341536e-02
  1.0274239e-03
  2.8008861e-02
 -9.7572040e-03
 -4.6023913e-02
  6.4348206e-03
  5.6771804e-02
  9.7405642e-02
 -4.8092105e-03
 -9.0826815e-03
 -6.1048544e-03
  7.2184995e-02
 -1.0357036e-01
 -6.5718973e-03
 -2.9618787e-02
  6.9796266e-03
 -3.1393472e-02
  3.7185390e-02
  1.9671768e-03
  8.9326603e-03
  1.1932322e-02
  2.1987097e-02
  3.3344325e-02
 -1.9966587e-02
  8.4192986e-03
 -1.0951182e-02
 -5.2645487e-01
 -1.2809472e-02
 -3.0891966e-02
 -1.0167477e-01
  1.6460020e-02
 -7.3789493e-03
 -2.6118360e-04
 -1.2978583e-02
 -1.0714063e-02
 -3.6830071e-01
  3.0512514e-04
 -2.9177228e-02
 -2.4403371e-02
  1.0512317e-02
  3.3612955e-02
 -2.0341787e-02
 -9.8923147e-03
  2.6265547e-02
 -4.9772346e-03
  3.9047718e-02
 -4.8501972e-02
  3.3215508e-02
 -3.0690275e-02
 -2.2792747e+00
  9.7778767e-02
 -2.6081223e-03
  1.0328216e-02
 -7.3652789e-02
 -1.8286719e-03
  3.0412700e-02
  5.6974175e-03
  1.2054713e-02
  9.8966351e-03
 -1.5335832e+00
  3.6242187e-02
 -1.4593346e-02
 -6.6107609e-03
  4.6789207e-02
 -1.4046529e-02
  3.5009820e-02
  1.2466912e-03
 -3.1657957e-02
 -1.1518975e-01
 -3.1817060e-02
 -5.7988953e-02
  5.1709779e-02
  1.9514218e-02
 -4.4710301e-02
  7.9413026e-04
 -1.9957324e-02
  2.7263817e-01
  1.8074286e-01
  4.1250205e+00
 -2.2488818e+00
  2.2498496e-01
 -4.4879520e-01
 -1.1878274e-01
  8.1455916e-01
  2.6399965e+00
  1.5319157e+00
  3.7867486e-02
 -9.2012629e-02
  4.9255961e-01
  1.1510282e+00
 -1.2121314e+00
  3.3819327e-01
  7.4832678e-01
 -2.5017669e+00
 -9.5413283e-02
  8.3890003e-01
 -7.8382963e-01
  1.6229706e+00
  1.1103222e-01
 -1.3216990e+00
  7.3113132e-01
  4.4779202e-01
 -2.0180821e+00
 -2.1761940e+00
  9.9313259e-01
 -3.5883978e-01
  2.7446761e+00
  7.9184836e-01
 -1.7719798e-01
 -1.6011153e+00
 -3.5504892e-01
 -2.0268161e+00
 -2.1618640e+00
  2.2307789e+00
  9.6941543e-01
  2.0929468e+00
 -1.4915943e+00
  1.0083919e+00
 -1.3866037e+00
 -1.0434405e+00
 -2.2698663e-01
  1.2603448e-01
 -1.3942433e-02
  1.7111000e-02
  4.3072239e-02
  5.5528539e-01
  5.4903828e-02
 -1.9020617e-02
 -8.9056894e-02
  5.2534775e-03
  1.2729304e-02
 -2.7383827e-03
  2.9147631e-02
 -3.8909182e-02
  4.9163785e-02
 -3.3494616e-03
 -5.1922787e-02
 -1.1111907e-02
  5.3135896e-01
  4.0612478e-02
 -5.7736319e-03
 -1.7499788e-02
  3.8892440e-03
  5.9736665e-02
  3.6568925e-02
  1.8468627e-03
 -1.9267889e-02
 -7.1940370e-02
 -1.9226963e-02
  2.9136792e-02
 -1.1540856e-02
 -2.9410934e-01
 -1.1175494e-03
 -1.4453947e-03
  4.4745583e-02
 -8.4242830e-03
 -4.1150920e-02
 -9.2051186e-02
 -8.1038254e-04
 -5.2072536e-02
  1.4220628e-02
 -3.1606779e-03
 -4.2728543e-02
 -1.1131160e-02
  2.6555901e-02
  1.7881984e-02
  6.6185934e-03
 -5.6466687e-02
  4.4274386e-02
  8.5448772e-03
  3.6489926e-03
  8.1322432e-02
 -6.6326782e-02
 -6.8749887e-01
 -1.9208055e-02
  3.3253999e-03
  4.1433219e-02
  2.1028443e-01
 -5.3683924e-03
 -1.6573701e-02
 -1.8807490e-03
  1.3126369e-02
  5.4140631e-02
  7.5742872e-03
 -8.6402290e-02
  2.0800456e-01
 -7.0147283e-02
  2.1785336e-02
  5.6250244e-01
  1.8594966e-03
 -2.1532699e-02
 -4.2256083e-02
  3.0476816e-03
 -5.0394267e-02
  2.6795875e-02
 -3.1534940e-02
 -1.9825108e-03
 -6.7042019e-03
  1.9888189e-02
 -1.2879039e-03
  1.8716578e-03
 -6.6541508e-02
  1.3201784e-02
  2.8261528e-03
  1.0011455e-01
  8.5196540e-02
  3.7282694e-02
  9.0492587e-04
 -1.2094164e-01
 -3.0209409e-02
  4.7401205e-02
 -1.8888469e-01
 -1.1333743e-02
  1.1867335e-02
  1.7681835e-02
  6.8169981e-02
 -1.1935703e-02
  1.6401440e-02
  3.7827108e-02
  2.6724443e-02
 -9.5658861e-03
 -1.2053390e-02
 -9.6774474e-02
  4.5223497e-03
  2.4524486e-02
 -1.1950966e-02
  3.2073278e-03
 -2.6139285e-02
  2.8383164e-02
  3.6911096e-02
  3.6230538e-02
 -1.3765433e-02
 -3.4451526e-02
  3.1585488e-03
  2.3530202e-02
  1.7869281e-02
  8.6546945e-04
 -9.5028791e-04
 -1.4525949e-02
 -4.8391375e-01
 -9.3219501e-01
 -8.7289768e-01
 -8.6388692e-02
  2.9801285e-01
 -8.6058879e-01
  3.4221849e-01
 -2.8085977e-02
 -1.2025605e-02
 -3.5000304e-03
  4.2245615e-02
  1.3606599e-01
  2.7411366e-02
 -1.3163852e-02
  3.2537454e-01
 -2.2988198e-03
  6.6025645e-01
  1.1808371e-01
  9.7922906e-03
  2.6125744e-01
  8.0311954e-02
 -5.2473605e-01
 -6.6120023e-01
  1.7490406e-03
 -1.8587414e-02
 -1.8802712e-02
 -7.1732676e-01
 -6.1743295e-01
  5.2557129e-01
  5.2381027e-02
 -6.3171126e-03
 -7.1010608e-03
 -5.4539949e-02
 -1.2468274e-02
 -1.2336258e-01
  1.2443885e+00
 -2.4737181e-02
  7.1250107e-03
  2.4511908e-01
  7.5029582e-03
  2.7913639e-02
  7.2847322e-02
  8.4766243e-03
 -1.5146891e-03
 -3.3301175e-02
 -8.6798146e-03
 -1.9957215e-02
  5.2647009e-02
 -2.0839956e-01
  1.6722906e-02
  5.5374950e-01
 -1.0452833e-02
 -4.9420308e-02
  2.6140490e-01
  2.4080679e-02
  3.4315761e-02
  2.3850860e-02
 -1.8920474e-01
 -3.1073240e-03
 -6.2229600e-02
 -1.0422437e-02
  9.7153150e-03
  2.1099586e-02
  1.0518846e-02
 -2.3475995e-02
 -4.0723976e-02
 -6.6592605e-03
  1.0797292e-02
 -7.1622260e-02
  4.2057261e-03
 -4.2957347e-02
  5.6276146e-02
 -4.1490395e-02
 -4.4559970e-02
  8.4973238e-03
 -2.9905800e-02
  3.6406599e-02
  9.0438128e-03
  2.1978956e-02
 -5.7110894e-03
 -1.0283761e-01
  1.2907526e-02
  2.9230194e-02
 -4.0828451e-03
  6.5447791e-03
  1.0672887e-04
 -2.6240633e-03
  9.0832962e-03
 -2.3923945e-02
  8.9384187e-03
 -3.3882912e-02
 -3.2476615e-03
 -1.8260296e-02
  1.2115004e-02
  9.3920641e-03
  2.4546949e-02
  5.2756481e-03
 -1.6667983e-02
 -1.1591064e-02
 -1.3023914e-02
  1.5886022e-02
  3.7158504e-03
 -7.0990343e-04
 -5.2784659e-02
 -6.3699773e-03
 -8.3868034e-02
 -1.7391097e-02
 -1.0829527e+00
 -1.7375305e-01
 -1.4599192e-01
  2.4196595e-01
  1.8595440e-02
  2.3546536e-01
 -2.9840898e-02
 -2.2497691e-01
  3.2563487e-01
 -6.6620827e-02
 -1.3141976e-01
 -1.7977619e-01
 -5.7790201e-04
 -3.7343755e-02
 -2.9632905e-01
  1.6183807e-02
  1.7010395e-01
  2.8307527e-02
 -1.4054935e-01
  1.6037652e-02
 -7.4146293e-02
  3.9788991e-02
  6.7210756e-05
 -2.0360963e-01
  5.4831719e-01
  3.6753058e-01
 -6.6890046e-02
 -2.1105012e-01
 -5.2414507e-02
 -1.0775476e-02
  1.6735226e-02
  2.5333224e-02
 -2.0080623e-01
 -1.9160798e-01
  1.3714522e-01
 -6.5385491e-02
 -3.4868553e-01
  4.7332892e-01
  2.1238945e-04
  8.8678278e-02
 -1.5644659e-03
  6.3985482e-02
  1.5480446e+00
 -1.0432771e-02
  8.7460559e-03
  3.4773465e-02
  1.1580954e+00
 -7.6474927e-02
 -2.5944123e-02
 -8.3350046e-03
 -5.2230690e-02
  1.4412518e-01
  3.2202327e-03
  4.8709316e-03
 -4.4317871e-02
 -6.1852362e-02
  5.1274706e-02
  9.6114678e-03
  9.7324151e-01
 -4.9677372e-02
 -2.2593945e-02
  3.6053714e-01
  2.3342263e-02
 -2.3970595e-02
 -2.1426324e-03
 -1.9477161e-02
  3.2739709e-03
  1.4958777e-02
 -3.0616585e-02
  1.0540165e-02
 -2.5265794e-02
 -6.6748918e-03
  5.0470121e-02
 -9.6216341e-03
  2.6626442e-02
  3.3218965e-02
  2.8172528e-02
  6.9327638e-02
  2.6640777e-02
  6.8847552e-02
 -7.6056239e-03
  1.4273832e-02
 -1.3358139e-02
  3.9836574e-02
  2.8380057e-02
 -4.6182845e-02
 -1.3956577e-02
  9.2938624e-02
 -2.5264516e-02
 -1.7954864e-02
 -1.1846273e-02
 -5.1792666e-02
  2.6831916e-02
 -2.4054635e-02
 -2.0877659e-02
 -7.8601182e-02
 -2.3889840e-03
  1.6673740e-02
 -3.9187383e-02
 -1.2443459e-02
 -1.5050394e-02
 -2.1927282e-03
  1.8854942e-02
 -1.2404438e-02
 -3.5108697e-02
  8.7265447e-03
 -2.8186306e-02
  8.8336756e-03
 -3.1895132e+00
 -8.9604121e-01
 -5.4166007e-01
 -1.3529590e-01
 -4.3548387e-01
 -4.2502841e-01
 -6.0488641e-01
  1.6742797e+00
  3.2529753e-01
  2.3028907e-01
 -5.1124370e-01
  1.3799957e+00
 -1.0605174e+00
 -2.5425261e-01
 -1.0279245e+00
 -4.1153201e-01
 -9.3230182e-01
 -1.9062989e+00
 -1.3363170e-02
 -6.2619746e-01
  7.1990138e-01
 -6.6184026e-01
 -3.0432432e+00
 -1.0699576e-01
 -8.1127596e-01
 -5.7625020e-01
  1.0835543e-01
 -5.5822715e-02
 -3.1983519e+00
  7.0960808e-01
 -1.7342960e+00
 -1.6191782e+00
 -6.6904761e-02
  1.5076658e-01
 -1.0100399e+00
  2.8662531e-02
  1.0735058e+00
 -2.1056278e+00
  3.3141377e-03
 -1.0048620e+00
 -5.9597582e-01
 -6.4024967e-01
 -1.0000499e-01
 -1.5534532e+00
 -9.7914897e-02
 -2.2613908e-01
 -2.8529480e-01
 -2.9357616e-02
 -1.7918351e-01
  1.3311947e-02
 -1.9672498e-02
 -1.5248368e-02
  4.0202200e-02
  1.2127423e-01
  1.0052870e-03
  4.9448762e-02
 -5.1078975e-02
  7.5204059e-02
 -6.7307234e-01
 -2.0333935e-02
  1.1953916e-02
 -8.9038485e-01
 -2.4455585e-02
  2.9902682e-02
  6.2078323e-02
 -5.4690614e-04
 -1.2375942e-02
  1.3562994e-02
  7.7122157e-03
  2.2984970e-02
 -2.4898577e-02
 -2.7410343e-02
  2.7333872e-02
 -8.1928605e-03
  2.4947658e-02
 -1.0138872e-01
 -1.6244867e+00
 -1.1474786e-03
 -2.9753008e-01
 -9.6755633e-03
  5.9709847e-03
 -5.0673209e-02
  2.9728483e-02
  9.4393782e-02
  3.2037951e-02
  1.5579868e-02
 -2.3665357e-02
  1.0621906e-03
  5.0972052e-02
 -1.3182485e-02
 -1.5150001e-02
  1.0087471e-02
 -5.0165048e-03
 -7.2191423e-03
  6.3995488e-02
 -3.2905426e-02
 -9.7268056e-03
 -5.3619752e-03
 -1.7912244e-02
 -3.3939850e-02
 -1.8739831e-02
  1.3842111e-02
 -7.5906791e-02
 -4.0304285e-02
  6.6103846e-02
  2.3424737e-02
  2.2061070e-02
 -3.7058707e-02
  2.0013368e-03
 -4.2960281e-03
 -2.1552917e-01
 -1.4234689e-01
 -1.9985640e-01
 -3.1512927e-02
  8.6895451e-03
 -6.3265216e-01
 -6.0879767e-02
  3.6414467e-02
 -5.4621855e-03
  1.2670340e-01
 -3.1516034e-02
 -1.8919064e-02
  2.6522277e-02
  6.8073627e-04
 -2.4443325e-02
  5.9992922e-03
  1.9252189e-02
 -9.1834076e-02
 -7.2537540e-03
  8.9821301e-02
 -4.2160720e-02
  1.1508659e-01
 -1.5568122e-01
 -9.6644074e-02
  2.1631707e-02
  2.8062046e-01
  3.7209131e-02
 -5.0415527e-02
  1.2077216e-02
  2.3273390e-02
 -1.0012335e-01
  6.7484993e-03
 -3.1983785e-02
 -5.1526939e-03
 -1.4270869e-01
  3.7211671e-02
  2.5870579e-01
  3.1520657e-02
  4.1097533e-03
  3.4037471e-02
 -8.2942368e-03
 -4.2336222e-02
 -3.8298603e-02
  3.6079437e-04
 -2.7836716e-02
  3.1133637e-02
  7.2367355e-02
 -2.0560956e-02
 -2.3668930e-02
 -3.6703397e-02
  2.3570761e-02
 -4.4300124e-02
 -1.3241345e-02
  3.4424416e-03
  4.0819883e-02
 -2.3694554e-02
 -6.9144234e-02
 -2.0762185e-02
 -5.6356218e-02
 -4.9010035e-02
 -5.8185635e-03
 -8.0670929e-03
 -2.0472035e-02
  3.7366129e-03
 -9.4011821e-02
 -3.3653770e-02
  3.9940827e-02
  3.9060496e-02
 -5.9839107e-02
 -3.6758762e-02
 -3.8267709e-02
  3.8917735e-02
  1.1690764e-02
  1.2851542e-01
 -5.4514647e-02
  1.7408501e-02
  2.1389332e-02
 -3.0800205e-02
  2.1890895e+00
 -7.2362639e-02
  2.5732288e+00
  2.2594785e-02
 -1.8407742e-03
  2.8698158e-02
  2.3065716e-02
  1.5172156e-02
 -3.1505907e-03
 -4.6867769e-02
  2.8641641e-02
  1.6358908e-02
  2.9532488e-02
  8.7601647e-02
  2.0664679e-02
 -4.2127678e-03
 -3.8602114e-02
 -1.9108197e-02
 -6.6982433e-02
  2.8002672e-02
 -8.7712929e-03
  7.2433412e-01
 -1.7796425e-02
  4.8300796e-03
 -9.0964008e-03
 -4.5643754e-02
  2.6547046e-02
 -6.8882771e-02
  6.2145776e-01
 -1.3350768e-01
 -2.1693207e-01
  4.5448059e-01
 -3.9232668e-01
 -2.7146360e-01
  8.7638575e-01
 -5.6177366e-01
  1.3805999e-01
 -2.4678279e-03
  4.3424019e-01
 -1.6058803e-01
  5.8955617e-02
 -5.7340133e-01
 -2.0384178e-01
 -2.1523545e-03
 -6.5512931e-01
  6.8630522e-01
 -1.3236445e-01
  1.0160921e+00
  2.0221311e-01
 -7.0967007e-01
  5.3585093e-02
 -3.4137823e-02
 -1.2256601e-01
 -1.0709993e-01
  4.9184111e-01
 -1.0572598e-01
  6.8867728e-03
  3.1244895e-01
  2.2645371e-01
 -8.1517756e-02
  3.5888749e-01
  7.2580320e-01
 -1.1840976e+00
  2.4271846e-01
  7.0023459e-01
  1.0501907e-01
 -6.3688077e-02
  1.9613425e-01
 -1.3621027e-02
 -5.1548046e-01
  5.1290452e-02
 -2.3935601e-01
  8.8030422e-01
 -1.5202102e-01
 -7.2920702e-02
  3.5647982e-01
  1.1192382e-02
 -6.6562794e-02
 -5.3027414e-02
 -7.6477535e-02
 -2.7909188e-02
  2.1675104e-02
 -2.7154993e-02
  2.5571659e-01
 -3.9451264e-02
 -2.0554645e-02
  1.8152868e-02
  2.6302701e-02
  3.0394036e-02
 -2.3284389e-04
  1.0129711e-02
  5.7204500e-02
  3.2651313e-02
  4.1432619e-02
  3.6857337e-02
  1.0667509e-01
  1.6569931e-02
 -4.6880174e-02
  3.7950815e-03
  1.1591439e-02
 -7.2211539e-04
 -5.0068017e-02
 -3.4410008e-03
  3.4137122e-02
  4.1465186e-02
 -2.7686099e-02
  4.0954422e-02
 -6.6747889e-02
  2.0024478e-02
  1.2092409e-01
 -3.8325088e-04
 -3.6060181e-03
  1.1447385e-01
  1.9756204e-02
  3.3006359e-02
  4.7733888e-02
 -1.3594755e-02
 -3.9620507e-03
 -8.8757207e-04
 -1.3534929e-01
  2.5820583e-02
  4.1702902e-03
 -1.3924284e-02
  6.7056953e-03
  4.2739578e-02
 -2.1954834e-01
  9.6845418e-01
 -5.9946410e-02
  5.2749582e-02
 -3.2835253e-02
 -4.2328991e-02
 -7.4530160e-03
  3.1172533e-02
 -6.2451303e-02
  1.1149800e-02
  2.6148528e-02
  6.5176181e-02
  3.1967762e-01
  1.6945213e-01
 -2.8909493e-02
 -1.8255683e-02
 -1.1418848e-02
 -3.1307667e-02
  8.7311226e-01
  4.2419182e-04
 -1.7820444e-02
  4.9433444e-02
  2.9692367e-02
  1.7756190e-02
  6.2240460e-03
  4.5371037e-02
  1.8711604e-02
 -8.2457101e-04
 -3.3159826e-02
 -1.0112640e-02
 -1.8427115e-02
  1.0252358e-02
 -4.9789805e-02
  4.7196455e-02
  1.6009297e-02
  4.4626910e-03
  1.4028911e-02
  1.8368941e-02
  1.5933875e-02
  3.2578100e-02
  3.6543062e-01
 -1.0733074e-02
 -2.9862523e-02
 -7.6863386e-02
 -1.6682854e-02
  1.0322547e-04
 -2.3199931e-02
 -6.7126947e-03
 -5.3285167e-02
 -1.7550234e-02
  1.5348932e-02
 -2.1286936e-02
 -2.1198156e-01
 -4.2070888e-02
  1.2393195e-02
 -4.6663772e-02
  7.8912638e-03
  7.6753326e-02
  9.1143809e-02
 -1.0586929e-02
  1.2197661e-01
  1.0106700e-02
  6.8297656e-03
 -6.1222352e-03
 -7.9786107e-03
  2.0783054e-04
  3.2135975e-02
 -3.4938323e-01
 -1.5131558e-01
  2.2086667e-01
 -4.3166848e-03
 -1.0016990e-01
 -8.1218016e-01
  1.6585845e+00
  8.6041829e-03
 -4.7948045e-01
 -6.9106035e-03
  1.2650582e-01
  1.8336579e-02
 -2.4300596e-02
  1.0711206e+00
  1.2185851e-01
 -3.0593073e-03
  1.3737167e-02
  1.1040040e-03
  3.8020581e-02
 -3.8940817e-02
  3.3018030e-03
 -6.6631241e-03
  1.1262150e-02
  1.3724566e-02
 -7.6655842e-02
 -2.9894453e-02
 -4.3493725e-02
 -1.1258051e+00
  1.1670673e-02
  6.3455491e-03
 -1.4755435e-01
 -4.7469484e-03
 -4.2169269e-02
  1.1717593e-02
  1.1742746e-03
 -2.8445456e-02
  1.4093643e-01
 -6.4556964e-02
 -3.1029377e-03
 -5.9256190e-04
 -7.8935344e-03
 -3.1715453e-02
  1.7198930e-02
  5.6031156e-02
 -1.1507293e-02
 -3.4495862e-04
  2.5134734e-03
  1.2250512e-02
  1.0082481e-02
  6.3368962e-03
 -9.0333611e-02
  6.9886900e-02
  4.5380032e-01
 -5.7001386e-02
  6.8806246e-02
  8.7153691e-01
  9.0632141e-03
 -1.0661899e-01
 -3.2824045e-01
 -1.0320873e-01
 -1.4211173e-01
 -6.6408104e-01
 -1.2551152e-02
  9.4967196e-03
  2.7546074e-02
 -1.5223122e-03
  5.8332342e-01
 -1.3085751e-01
 -5.5929595e-01
 -8.4404367e-01
  1.0173494e-01
 -5.7172845e-03
 -2.3448769e-02
 -1.5990075e-02
  2.4835307e-03
 -5.6601916e-02
 -1.2669634e-02
 -7.3716260e-02
  1.6151465e-02
 -7.9011542e-01
 -2.0437291e-01
  4.0500991e-02
 -1.9133620e-01
 -1.2420117e+00
  5.5772710e-01
  6.8782188e-02
 -1.2685168e-01
 -5.9643421e-02
 -2.6924761e-02
  8.6423486e-02
 -8.9854848e-01
  2.9967722e-01
  7.9077095e-02
  3.8964394e-01
 -6.5693170e-02
 -2.5884205e-01
  6.3991211e-03
 -6.0841437e-02
  4.1744359e-02
  1.3461722e-02
  2.0879802e-01
  3.9704414e-03
  6.5582588e-02
  8.3191290e-02
 -1.8048143e-02
  2.5729552e-02
 -2.6164028e-01
  4.7185463e-01
 -2.3041306e-01
 -2.3588620e-01
  8.0314407e-04
  1.7800964e-01
  9.0786174e-02
  3.1645145e-02
  2.9169905e-01
  4.0540285e-02
  1.9834995e-01
 -2.4686013e-03
 -7.2888583e-02
  2.8361466e-02
 -2.1896315e-01
 -2.3141006e-02
  2.2080307e+00
  5.6502499e-02
 -8.2295528e-03
  2.1612665e-02
 -1.4241500e-01
  4.8075899e-02
 -3.5356935e-02
 -1.0946780e-02
  1.8440650e-01
  2.5988957e-01
 -7.7848233e-02
 -1.7485704e-02
 -3.4512822e-02
  3.2699097e-02
  1.8296286e-02
 -5.1611934e-02
 -2.9958472e-01
 -1.5249303e-01
 -9.8736919e-02
  1.3502220e-02
  2.6454502e-01
 -4.7467701e-02
  1.7300962e-01
  3.5103116e-02
 -2.9075155e-01
  8.8917501e-02
 -9.4764037e-03
 -1.1641740e-02
 -5.5749342e-02
  5.6322258e-02
  4.6845630e-02
 -2.2784200e-02
 -1.7664954e-03
  4.6910942e-02
  2.4860140e-02
  1.4044551e+00
 -4.5952287e-02
  3.6755156e-02
  2.4612222e+00
  8.5563838e-01
 -6.6073161e-01
 -5.3761798e-01
 -2.7055192e-01
  9.6274036e-01
  1.6046079e+00
 -4.2426422e-01
  7.4048513e-01
  3.4413591e-02
  4.3384466e-01
 -8.9737535e-01
  4.1329119e-01
  9.2093879e-03
  4.0904924e-01
  1.2772642e-03
  3.5884974e+00
  1.3790554e-01
 -2.5600411e-03
 -1.1175702e+00
 -5.0196433e-01
  2.6170018e-01
  2.9399076e-01
  5.0705262e-02
 -5.7996288e-02
 -9.0845180e-01
  4.6630286e-02
  8.5760050e-02
  5.1727235e-02
  7.3009267e-02
 -3.1675172e-01
  2.7297577e-02
 -3.4240344e-01
  8.0831063e-01
 -7.0251897e-02
 -1.1435817e+00
 -1.7499669e-01
  1.7023884e-01
 -7.8839011e-02
 -5.0129640e-01
  4.7150305e-01
  1.0377204e+00
  1.7818455e-02
 -6.0603160e-01
 -1.8249391e-02
  8.0092959e-03
  7.2727495e-01
 -1.1538970e-02
  4.2073494e-03
 -1.3215259e-01
  1.9947195e-02
 -1.2308609e-01
  3.6775318e-03
 -1.9859313e-04
 -8.7743942e-03
 -7.4477452e-03
 -2.1229699e-02
 -1.3952483e-03
  6.9566786e-02
 -8.9538753e-02
  3.8890313e-02
 -1.2015927e-01
 -1.9016648e-02
  1.9197270e-02
 -1.5372242e-02
  1.0059213e-01
 -3.4531411e-02
  4.2342938e-02
  3.1751815e-02
  3.8463447e-02
 -3.9630956e-03
  1.9561011e-02
 -6.4764288e-03
 -8.9732483e-02
 -1.1892030e-03
  1.4847621e-01
 -4.0477449e-03
  1.3625114e-02
 -1.9928578e-02
  5.5976041e-02
  1.5237815e-02
 -1.6951466e-02
  3.4824465e-03
  1.3591082e-01
 -3.8285408e-02
 -3.4154870e-02
 -5.9281662e-02
  2.8885268e-02
 -1.0284200e-02
  1.4440469e-02
  1.8154506e-03
  5.6202285e-02
 -9.6136723e-03
 -9.7829908e-02
 -1.5170279e-02
 -3.9055582e-02
 -3.0640157e-02
 -4.1882317e-03
 -3.3831220e-02
 -1.0398367e-02
 -1.3602572e-02
 -4.1761491e-02
 -1.4326622e-01
 -1.2816352e-02
  4.1159303e-03
 -1.9925607e-02
  3.5143178e-03
  6.5057185e-03
  1.0180396e+00
 -8.0281639e-01
  4.0262419e-01
  8.8647789e-01
 -1.8303775e+00
 -1.0170158e+00
 -6.5818822e-01
  2.9000244e-01
 -1.3552295e+00
  1.0790129e+00
  1.2409580e-02
 -3.8219087e-02
 -2.0857440e-01
 -9.0102869e-01
 -7.4573958e-01
 -1.1417583e-01
 -1.1196132e+00
 -5.6222588e-01
  1.0990516e-02
 -6.7958707e-01
  5.7569867e-01
  8.0733933e-02
 -1.3131763e+00
 -4.0228954e-01
  3.7345961e-02
 -1.1318847e+00
  5.5597210e-01
  2.3071194e-01
 -4.1506580e-01
  1.9490297e+00
 -5.4117250e-01
 -9.3051118e-01
  1.4680682e-01
  6.9603927e-02
 -9.1379553e-01
 -4.2348001e-03
  7.2186261e-01
  9.3977777e-03
 -3.6306056e-01
 -1.0874625e+00
 -2.6207337e-01
  1.4829893e+00
  3.2531056e-01
 -1.0707363e+00
  3.3247295e-01
 -8.9001670e-02
 -3.0780897e-01
  5.0809709e-03
 -3.7382558e-02
 -4.0388875e-02
  6.5216953e-03
  4.3192144e-02
  9.7294599e-03
  3.1386660e-03
 -1.8669724e-01
 -1.0162223e-02
 -2.4645630e-01
 -1.5128988e-01
 -7.4797429e-02
  1.4257340e-01
  5.4752208e-02
  2.7622916e-02
 -1.8554647e-01
 -1.5439168e-02
 -8.3666973e-02
  5.3941123e-03
 -3.4097839e-02
 -3.2891098e-02
 -7.7909626e-02
  3.4249958e-02
  3.2676708e-02
  1.4865841e-01
 -3.1516910e-01
  3.3581272e-02
 -5.1412065e-02
  6.5422594e-04
 -1.5639167e-02
  2.3424601e-02
  4.1951250e-02
  1.8564635e-03
 -1.0119040e-02
 -9.5831172e-04
 -1.2950881e-01
 -3.8673744e-02
  4.5264702e-02
 -8.3160633e-04
 -6.3624248e-02
 -2.5099833e-02
  1.1201499e-01
  4.7537480e-02
  8.0752075e-02
 -1.0140971e-02
  1.7189264e-01
  3.4817737e-02
  1.3416177e-02
 -1.0762993e-01
 -5.9798334e-02
  2.4995306e-01
 -6.0348092e-03
  2.3040630e-02
  3.4272806e-03
 -4.9511478e-03
  2.3356292e-02
  6.4004175e-02
  9.7746160e-03
  4.9815858e-03
 -7.1099121e-03
 -3.5879977e-02
  6.8528038e-01
  1.9375063e-01
  1.1264823e-01
  6.8215013e-01
  4.3383300e-01
  3.7987111e-03
  7.7360459e-02
 -7.4036413e-01
  9.0643269e-01
  7.7333623e-03
 -4.9807485e-02
  6.7133330e-02
  9.4085336e-03
 -3.5000427e-03
 -6.1074331e-02
  2.6526594e-01
 -1.7609617e-02
 -9.2233568e-02
  4.7627382e-02
 -8.9690471e-03
  1.3495419e-02
 -2.1053534e-02
 -2.1655383e-02
 -1.7746771e-02
  2.1350028e-02
 -2.7151242e-02
 -1.6368253e-02
  1.3048925e-01
  1.1098034e-01
  4.8911344e-02
 -8.6575851e-02
 -4.2064109e-01
  1.6436218e-01
 -1.8604798e-02
 -2.4366161e-01
 -1.2845294e-02
  1.9714712e-01
  1.7493360e-02
 -1.7590582e-02
 -7.3810178e-01
 -1.2828395e+00
  5.7270122e-01
  7.9910494e-03
  7.5607229e-04
  4.3449882e-02
  8.2542324e-01
  1.8062959e+00
 -2.0607570e-02
  6.4007905e-03
  2.8089033e-03
  9.5549952e-03
  1.2882126e-03
  2.2902763e-02
 -3.5906207e-02
  5.0719641e-03
  2.4363091e+00
 -1.3097069e+00
 -7.9656743e-02
  1.8452765e+00
 -2.6267639e-01
 -1.9776222e+00
 -3.6804804e-01
  1.1514144e-03
  6.3360095e-02
  9.5075332e-03
  2.8119283e-04
 -3.5604216e-02
  4.3264233e-02
 -3.2376297e-02
 -2.9409578e-02
  2.6776893e-02
  6.7210505e-03
 -1.9235667e-02
  2.1229729e-02
  1.4230225e-02
 -1.6141734e-01
  1.0868032e-02
  8.2693018e-02
  1.5081605e-03
  2.7322883e-02
  2.2768345e-02
 -1.9279252e+00
 -2.3537539e-03
 -3.3002403e-02
 -4.8025513e-01
  1.0092560e-02
 -1.3869159e-01
 -1.4839857e-02
  7.0201196e-02
 -2.1981748e-02
  1.0476090e-01
  1.3818428e-01
  3.5757668e-02
  6.2982285e-01
  6.9208462e-03
 -1.4050208e-02
 -8.5217301e-03
  3.4594572e-01
 -6.2640952e-03
 -8.9559950e-02
  1.4691260e-02
 -2.0118114e-02
  1.1382929e-02
 -4.7075666e-02
  3.0950934e-03
 -1.1985156e-02
 -1.1719360e-02
  1.1989130e-02
 -5.0608838e-01
 -1.8107851e+00
  9.7755790e-01
 -7.1816629e-01
 -1.0703541e+00
 -3.4902653e-01
  4.8366192e-01
  1.0916957e+00
  4.2495134e-01
  1.1782947e+00
 -5.2450687e-02
 -1.9857141e-01
  5.4137754e-01
 -1.6580842e-02
 -9.3283817e-02
  4.7957611e+00
  1.1672632e+00
 -2.5031668e-01
 -2.4408987e-01
  2.1551645e-01
 -2.3476414e-02
  5.2720336e-03
  7.8373281e-03
 -9.5228386e-01
  3.1558943e-01
  1.7107114e-01
 -8.8507330e-01
 -1.5169203e+00
  1.5338662e-04
 -2.5713503e-02
 -2.7322698e-01
  2.9000807e-01
  3.6622098e-01
  6.7901085e-03
  3.7649572e-01
  9.7972155e-01
  1.0547550e-01
 -3.8018405e-01
  5.0062251e-01
  5.5251861e-01
 -3.2835111e-02
  3.5913099e-02
  3.3697408e-02
 -5.6858271e-01
  7.2715379e-02
  6.9869198e-02
 -8.7114256e-03
  3.5734600e-03
 -2.8800243e-04
  7.0370294e-02
 -3.7485033e-02
  1.9835450e-02
  6.9822893e-02
  2.3220319e-03
 -2.7691771e-03
  2.2975219e-02
  4.1756484e-01
 -2.7627897e-02
 -1.9680409e-02
  1.3222895e-02
 -5.9639943e-01
  2.8401323e-02
  2.2147927e-02
  2.5707413e-02
 -2.4796057e-02
  1.9868103e-01
 -1.4011533e-02
 -5.5147912e-02
 -3.6408573e-02
 -4.0141516e-04
 -6.3446358e-02
  4.4294586e-03
  7.6040998e-04
 -5.4671571e-02
  4.8165792e-03
 -2.8617572e-02
 -9.9160615e-03
  3.7805721e-02
  2.6887652e-02
 -6.7814011e-03
  1.6699927e-02
 -4.7887424e-03
  2.3401873e-03
 -1.2601516e-04
 -9.6834358e-04
  1.2902714e-03
 -2.6462385e-03
  5.7962406e-02
 -1.0812680e-02
 -2.4092937e-02
 -1.8729988e-02
  4.6219099e-02
 -4.4606101e-02
 -1.3671339e-02
 -6.7173988e-02
 -7.3445499e-02
 -2.8519852e-02
 -9.2892498e-03
 -4.7401660e-03
  1.1470621e-03
 -2.1631854e-02
 -4.2003907e-02
 -1.0549720e-02
 -5.5048848e-03
 -4.1329823e-03
 -2.6388288e-02
  5.5529337e-02
  2.0888556e-02
  7.1347468e-02
  1.8797791e-01
 -1.1427938e-02
 -3.1168288e-01
  1.3128047e-01
 -3.4330899e-01
 -1.8061173e-01
 -1.9521347e-01
  6.0617577e-02
 -3.5667967e-02
 -1.0792986e-01
 -1.5936682e-02
 -1.3198408e-03
 -7.6398784e-03
  7.7226198e-01
 -8.7760808e-03
 -2.4360155e-01
 -8.3696814e-03
 -2.5558986e-02
 -4.2557731e-02
 -2.6514957e-04
 -7.8062810e-02
  9.6151643e-03
  3.0252138e-01
 -2.2587866e-01
 -7.2899364e-02
 -2.3854278e-02
 -2.5320870e-01
  2.1798158e+00
  3.6274325e-02
 -1.8818928e-01
  1.3746916e-02
  4.5831744e-02
 -6.8967855e-03
 -6.6079780e-02
 -2.6848179e-03
  2.3815602e-02
  2.9584611e-02
 -1.1442871e-02
  1.2556527e-02
 -8.8045504e-03
 -2.7466265e-02
 -4.7236253e-02
  1.5218458e-01
  6.5749064e-02
 -1.5096005e-02
 -5.4643173e-02
  4.4699583e-02
  7.6829374e-02
  3.9363336e-02
  5.0726429e-02
 -7.4228801e-02
 -5.2502185e-02
 -2.4395466e-03
  2.5189454e-02
  1.5877275e-02
 -6.1741393e-02
 -8.0328546e-03
 -3.5678819e-02
  2.0705678e-03
  8.7127581e-02
  6.3485851e+00
 -1.7227530e-02
  1.6309622e-03
 -3.1555574e-02
 -5.1022839e-02
 -7.2681457e-03
 -1.9250205e-02
  2.7322175e-02
 -4.7648888e-02
 -1.2894749e-02
  8.1932262e-02
  1.1777944e-02
 -9.9768981e-02
 -1.5107129e-02
  3.1597815e-03
 -6.4553000e-02
 -2.8480114e-02
 -4.4369623e-02
 -2.6515839e-03
 -2.1872020e-01
 -1.5566827e-02
  1.6219065e-02
 -4.0243097e-02
  2.4369857e-03
  3.7906007e-03
 -8.7312926e-03
 -2.0791350e-02
  4.9615223e-03
 -4.2956391e-01
  5.2022827e-01
  1.5051404e-02
  4.5004804e-02
 -5.9601128e-02
 -4.0220641e-02
  3.7481587e-02
 -5.0258410e-01
  1.5818728e-02
  7.4481688e-02
 -2.2168411e-02
  5.2219890e-03
 -5.1914394e-02
 -7.4795045e-02
  9.5148850e-03
  7.4640341e-02
  9.5835496e-03
 -2.7239516e-02
 -1.7201446e-02
  1.1785263e-02
  4.0637732e-02
 -1.2620663e-02
  5.7483488e-01
  7.1381754e-01
 -3.7572078e-02
 -3.9612418e-01
 -1.2574008e+00
  3.1030923e-04
  7.1280375e-03
  6.6971257e-02
  1.3550138e-02
  3.3027470e-01
  1.9084059e-01
  2.2609510e-02
 -2.0931548e-02
 -1.5836239e-01
 -3.2341044e-02
 -6.2872589e-02
 -1.3571791e-02
  1.6976148e-02
 -1.2910671e-02
  2.2514286e-03
  2.4000563e-02
 -4.8729196e-02
  2.6684212e-02
  5.2416334e-03
 -7.6660536e-02
  1.8304188e-02
  2.6211616e-02
 -8.1968801e-03
  6.9201905e-03
 -2.7934346e-02
 -8.5205890e-02
  1.1357820e+00
 -4.4194147e-02
  1.6527690e-02
 -7.1444012e-02
 -2.1491878e-02
  6.3217059e-03
  8.4735071e-03
  1.1988650e-02
  1.0919504e-02
 -2.6635133e-02
  1.2628830e-02
  6.6460185e-03
  4.2962460e-03
  6.8259574e-03
 -1.0464138e-01
 -4.3339271e-04
 -1.5646352e-02
  4.9271710e-02
  1.7869152e-02
  1.9621501e-02
 -6.3362586e-01
 -4.9087185e-01
 -9.8763943e-01
  8.1457609e-01
  2.6066778e+00
 -8.6612649e-02
  2.8629403e+00
 -2.9650586e+00
  6.0667270e-01
 -1.0109221e-01
  3.2525796e-02
 -7.2068721e-02
 -1.0929918e+00
  6.8617433e-01
  3.6513750e-02
 -2.1381063e-02
 -3.6227293e+00
  8.7582599e-03
  1.3100532e+00
  9.5994242e-02
  3.2971811e-02
 -4.9426340e-02
 -3.1231844e-01
  4.8258224e-01
  2.4951711e-02
 -2.4253340e+00
 -5.1883897e-03
 -2.9709870e-01
 -9.9116750e-02
  1.8178903e-02
 -3.4619039e-01
  5.1046714e-02
  2.0080008e-01
  2.1456750e-02
  1.9060519e-02
 -7.9336390e-02
 -1.2375491e+00
 -2.0751638e-02
  4.4438224e-02
  2.1056618e-01
 -2.0932972e-02
 -3.9691997e-01
  1.8448556e-02
 -1.2337457e-01
  1.3409280e+00
  4.4508629e-02
 -5.7445120e-02
  3.3509612e-02
 -3.4898814e-02
 -2.5819094e+00
 -1.3341630e-01
  7.0130840e-02
 -7.5722146e-01
  3.8579425e-03
 -2.8467800e-02
  1.2547831e-02
 -5.8001781e-01
  1.6577677e-01
  4.7320005e-01
  1.1150301e-03
  1.3708007e-01
 -8.9814603e-02
 -9.7759761e-02
  1.3435668e-01
  1.5860057e-02
 -1.4290546e-02
  4.2909019e-02
  6.3483074e-02
 -4.4377856e-02
 -1.0422404e-02
  4.5940500e-02
  1.5245434e-03
 -3.4255040e-01
  4.5294382e-02
 -5.8576107e-02
 -8.8482182e-03
 -4.0989290e-03
 -2.9840220e-03
  1.9777919e-01
  2.1280694e-01
  2.3063016e-03
 -5.4957473e-01
  1.6782604e-02
  2.7097970e-02
  4.0585499e-02
  3.2383461e-02
 -5.6149250e-01
 -7.2899684e-03
 -2.2613872e-02
 -4.9352251e-02
  2.0424379e-03
  3.9232388e-02
  7.5398527e-02
  1.3891378e-01
 -5.2826577e-03
 -4.1790131e-01
 -4.2479612e-02
  2.5013868e-02
 -6.2298542e-04
 -7.4418494e-03
 -7.3892334e-03
 -2.2209570e-02
  4.7734305e-02
  5.8357436e-02
 -1.1096844e-02
 -2.8621919e-02
  2.1327205e-02
  1.1241669e-03
 -7.1223325e-01
 -2.6029295e-01
 -2.0100312e+00
 -4.7225341e-01
  7.0780754e-01
  8.4388584e-01
 -5.0455952e-01
  8.8989168e-01
  1.6819813e+00
  1.2439601e+00
 -3.1872454e-01
 -2.4741362e-01
  8.4567285e-01
 -6.1015976e-03
  1.5506291e-02
 -1.1703127e-02
  5.0430514e-02
  3.2283228e-02
  1.7891034e-02
 -5.6268364e-02
 -8.3066374e-01
  3.2070052e-02
  6.8080728e-03
 -1.5878106e-02
  1.0298796e-01
  3.1031864e-02
  1.6826412e-02
  8.3360020e-03
  1.1796210e-02
  2.1186033e-01
 -6.1082616e-03
 -8.3827768e-03
  8.5364871e-02
 -3.9915685e-02
 -1.1184248e-03
 -9.1337360e-02
 -1.8261580e+00
 -4.9233526e-02
  4.6914522e-02
  6.2722951e-01
  1.8915435e-02
  1.6514831e+00
  9.6359032e-01
  2.6285541e-01
 -2.0375272e-02
 -4.3340693e-03
 -1.2797661e-01
 -4.2894766e-02
 -4.3212216e-02
  5.2926384e-02
  1.3006490e+00
  1.8590635e-02
  8.0902514e-04
  3.1102765e-02
 -3.1465882e-01
 -1.5981410e-01
  3.5447817e-02
  1.3678529e-02
  8.3759946e-01
 -1.3726474e+00
 -6.9386607e-01
 -6.6400957e-01
  2.0769428e-01
 -1.1256680e-02
  5.2292449e-03
 -1.2067682e+00
 -9.5622540e-02
 -1.5038378e-02
 -9.4028795e-01
  2.7947601e-02
  3.6273062e-02
 -3.5735015e-02
  1.4730169e-01
  2.7837401e-02
  3.0119784e-02
  9.3047537e-02
 -1.7612211e-02
  1.4626896e-02
  2.0546582e-01
  2.8711814e-02
  2.1788370e-02
 -5.4788511e-02
 -1.7771835e-02
 -1.3065450e-01
 -8.6340867e-02
  6.0971457e-01
 -7.4745186e-02
 -1.5450056e-02
  2.7133129e-03
  2.5361061e-02
  2.5045544e-01
 -8.7290041e-02
  7.1479422e-01
  2.4689990e-01
  4.1590340e-02
  8.4135234e-01
  3.7143631e-03
 -1.6107378e+00
 -1.5360123e-02
  2.5542494e-02
  2.1923035e-02
  1.4514270e-02
  9.6901320e-03
  3.5887884e-03
 -5.1262926e-02
 -7.6460405e-03
  4.3938447e-02
  1.7778728e-02
 -5.9605561e-02
  7.8681484e-04
 -2.7255235e+00
  7.6384097e-04
 -1.4339956e-02
 -2.8346796e-03
 -1.1076522e-02
  4.1149553e-02
  6.7622870e-02
  1.0129923e-01
  1.2124251e-02
 -2.1790545e-02
 -3.4991302e-02
  3.7019465e-02
 -7.9004034e-02
  9.8084044e-03
 -1.8635500e-02
 -2.2199685e-03
 -3.0620554e-02
 -1.3781588e-02
 -9.1689631e-02
 -4.5001969e-02
  1.5640479e-02
  5.1527083e-02
 -4.6393987e-02
  4.5931220e-02
 -1.4618213e-02
  5.4399282e-02
 -2.0551248e-02
 -3.0175174e-02
 -6.6415332e-02
 -2.2888452e-02
  2.3146793e-03
 -9.2172258e-02
  3.6397937e-03
  3.3303536e-04
  5.1139191e-02
 -4.6195768e-02
 -1.0326606e-02
 -7.1799783e-03
  1.5537017e-02
  2.7329505e-03
  4.4771675e-03
 -1.3735901e-03
  1.3710123e-02
 -5.2817701e-03
 -3.8149953e-04
 -6.5519195e+00
  7.6288874e-03
  8.2011968e-03
 -4.0060426e-03
  1.9739239e-02
  1.8037748e-01
  1.6964238e-02
  7.7170087e-03
 -1.9108371e-01
 -9.4353911e-03
 -1.0861252e-03
 -4.3067791e-02
  5.6109160e-02
 -1.4006664e-03
 -1.6352071e-01
  1.3167439e-02
 -1.2847160e-03
  7.6473936e-02
  8.2604095e-02
  1.0912376e-02
 -3.3645637e+00
 -5.2818201e-02
  5.8303438e-03
  4.1521415e-03
 -1.5989743e-01
 -2.3406554e-02
  8.4564060e-02
  1.4527136e-02
 -1.1081493e-02
 -2.8984100e-03
  5.7073697e-02
 -7.4327858e-03
 -2.9044202e-02
  3.1669296e-02
 -2.7381650e-03
 -7.6669776e-03
 -3.1741053e-02
 -5.9618121e-03
  3.4930896e-02
  2.0659019e-03
  1.1905207e-02
  3.2915987e-02
 -1.0859643e-02
 -2.1175402e-01
  1.0747726e-01
 -6.9989450e-02
 -2.0699598e-02
  1.0707965e-02
 -3.1436635e-03
 -1.8799992e-02
 -6.6971574e-03
 -1.3415892e-02
  2.8162946e-03
 -2.0635436e+00
  1.2495831e-01
 -9.8416619e-03
  5.1594827e-02
 -1.2793958e-02
 -4.8577983e-02
  2.6860334e-02
  3.8262361e-01
 -1.7678493e-01
 -2.3162123e-02
  7.6800864e-03
 -7.3462957e-01
  1.1702641e-04
  4.6868015e-02
 -2.7727561e+00
  1.8494098e-02
  8.6264238e-03
 -7.0739418e-01
  3.4428965e-03
 -2.2168227e-02
  2.9586188e-02
  1.2154030e+00
 -3.1907987e-02
  4.1122455e-02
  1.4359620e+00
  5.6616390e-01
 -6.6212863e-02
 -7.3662721e-02
  1.0011251e-01
  4.1853338e-01
 -1.9134469e-02
 -1.3219954e+00
  9.0165563e-02
 -4.3788242e+00
  1.9466704e-02
  1.0593864e-01
 -5.0109571e-01
 -9.3922921e-02
  5.6725689e-03
 -3.0796528e-02
 -2.0340388e-01
  4.2862856e-01
  1.4019537e+00
  5.3204307e-03
  5.4494538e+00
  5.5340266e-01
 -1.7317519e-02
  3.1484243e-01
 -2.7595881e-02
  8.6801477e-02
  1.6318716e-02
 -3.4624684e-01
  1.5463305e-01
  8.9985421e-03
  1.3460717e+00
  4.9722176e-02
 -1.7042452e-02
 -4.8110798e-01
 -1.5509058e-02
  2.9180717e-01
  4.5240387e-02
 -8.2676798e-01
  1.2472039e-02
 -6.5696406e-01
  1.3502557e-02
 -6.6104740e-01
 -5.3961821e-02
 -4.2799987e-02
  1.1195108e-01
 -2.8426126e-01
  1.7124060e-01
 -8.9933294e-01
 -1.5784718e-02
 -4.8383653e-01
  2.1424057e-01
 -1.9651814e-01
  9.2328720e-02
  3.3609569e-01
  1.8115709e-02
 -3.0725712e-01
 -8.8996820e-02
  6.7214146e-02
  1.6769286e+00
  4.6706009e-01
  1.3536344e-01
  2.3041421e-01
 -1.2193645e-02
  9.6681155e-03
 -1.8583750e-02
 -6.0944469e-03
 -9.3635932e-02
 -5.4780233e-01
  3.2182083e-02
  5.0421441e-03
 -5.7928126e-02
 -2.0564046e-02
 -5.9618443e-02
  7.2330534e-02
  1.6031340e-02
  1.9124977e-02
  6.2974710e-03
  8.0595408e-03
  2.8760392e-02
  8.6281307e-02
  5.5402648e-03
  8.7751187e-03
 -2.6401563e-02
 -2.1880964e-02
  1.1858373e-01
  3.9324057e-03
 -2.6215011e-01
 -1.3788000e-02
  1.6554385e-02
 -1.4668170e+00
 -3.4713432e-02
 -1.5336582e-02
 -6.3440041e-03
  2.4723949e-01
  6.2473211e-02
  6.2757766e-01
  1.2422371e-01
  2.9939255e-02
 -1.0648905e+00
 -6.8549868e-03
 -2.2543260e-01
 -3.5190389e-02
 -1.9817078e-03
 -1.1435742e-03
 -1.4177817e-01
  1.3050024e-02
 -1.2574191e-02
 -3.0523151e-02
 -2.4143293e-02
 -2.8528884e-02
 -2.2311289e-02
  3.4283777e-03
  4.6053041e-02
 -8.3607640e-03
  1.8013360e-02
  6.7467904e-03
 -1.5999552e-02
 -2.8130025e-02
 -4.6202764e-01
  3.0482136e-02
  6.3333817e-02
  1.3918356e+00
 -7.6547110e-01
 -7.2503829e-01
 -2.0002708e-02
  7.1036229e-03
  1.1469590e-02
 -4.3202382e-02
 -3.8443118e-02
  2.7779143e-02
  2.6293386e-02
 -5.1722702e-02
 -1.2087049e-02
 -1.8817456e-02
 -1.1462646e-02
  3.7367195e-02
 -3.8816370e-03
 -3.0847624e-02
 -1.2748903e-02
 -1.5240721e-02
  1.9060329e-02
  2.5463559e-02
 -4.4531009e-01
 -5.2743405e-02
 -3.9009970e-02
 -3.9639670e-02
 -4.3964699e-02
 -6.6020703e-03
 -5.3273011e-02
  3.5905264e-02
  7.8869443e-03
  3.1439725e-02
 -2.6034353e-02
  6.6278793e-02
  5.1270528e-03
  1.2938272e-02
 -2.9482720e-03
  1.2724392e-02
 -4.1722354e-02
 -4.7517784e-02
  2.4587568e-02
 -1.9971019e-02
  4.2791490e-02
  3.4201415e-03
 -6.2412890e-03
 -5.1601585e-02
  2.3427702e-02
 -8.4275857e-02
 -3.7256833e-02
 -6.8616783e-03
 -1.9110505e-02
 -1.9111861e-02
 -1.4255650e-02
 -1.8449847e-02
  2.3879742e-03
 -8.9763388e-02
  5.5703527e-04
 -3.1563668e-03
 -2.2926627e-02
  6.9077693e-02
  4.2595595e-02
  1.4361687e-01
  1.2549073e-02
  6.5687999e-02
 -1.4940467e-01
 -2.9962448e-02
  3.2682393e-02
 -3.2742862e-03
 -3.2915436e-03
  2.5915393e-01
 -1.0318107e-03
 -6.4034024e-03
 -7.6323330e-02
 -5.7469001e-03
  3.7345916e-02
 -1.4327955e-02
 -1.3312007e-02
  1.8875562e-02
  1.0723981e-02
 -1.4182765e-03
 -1.4168397e-04
  9.3281707e-03
  9.9760592e-02
 -8.9813862e-03
  2.8680788e-02
  5.5988003e-02
  1.8101798e-02
 -4.6046272e-02
  1.1011931e-01
  1.6037208e-03
 -4.8910782e-02
 -2.3446953e+00
  1.6713770e-02
 -4.2926952e-02
 -1.7087224e-03
  6.6301972e-02
 -3.6827359e-02
 -1.3285823e-03
 -6.0896393e-02
  4.0143140e-02
 -1.4154212e-02
 -4.2418968e-03
  1.3460396e-03
 -3.5587654e-02
  1.2196772e-02
  4.1113030e-02
 -5.3472216e-03
 -1.0242118e-03
  2.3610264e-02
 -3.9371047e-02
 -6.4982779e-02
 -4.5071155e-02
  1.1026483e-02
 -6.4228517e-01
  3.4109779e-02
  5.6225216e-01
  6.2952805e-03
 -6.8482505e-03
  2.7390702e-02
 -8.5920226e-03
  1.4592217e-01
 -1.6512111e-02
 -1.1724161e-03
  2.0520069e-02
 -3.9634749e-02
  3.4201030e-02
 -7.8228779e-02
  1.3981082e-01
 -4.8325942e-03
 -2.0852203e-02
 -1.4895708e-02
  1.2770703e-03
  1.3069752e-01
  2.4274657e-02
  3.6103386e-02
  3.1156510e-02
  1.6222043e-02
  7.1590491e-02
 -5.7839453e-03
  1.5672717e-02
  2.7921297e-02
  2.0516007e-01
 -5.5109106e-02
 -2.4935330e-01
 -4.8363183e-02
 -2.4107076e-02
 -2.7117988e-02
  1.3837924e-02
  7.5502872e-02
 -5.5842390e-03
  1.3062309e-02
  1.7590614e-02
 -5.2893486e-02
  2.9232340e-02
  4.9174521e-03
 -4.2702165e-02
  8.2526356e-03
 -2.7120937e-02
  2.3642989e-02
 -1.0134717e-02
  1.9830998e-02
 -2.3102402e-03
 -4.9826488e-02
  5.4595244e-01
 -1.1078755e-02
  6.6132784e-02
 -4.0201172e-03
  1.3914998e-03
  1.7887698e-03
 -1.1251505e-02
 -3.5290860e-02
  6.3257769e-02
  2.1420920e-04
 -3.1585623e-02
  3.3907727e-03
  1.0249184e-02
 -1.6939260e-02
 -4.3637984e-02
  1.4905706e-01
  1.7792825e-02
  7.3473960e-02
  4.6035484e-03
 -1.9383959e-02
 -9.6848141e-03
 -1.1572262e-02
  2.2553081e-02
 -4.1386824e-02
  2.1842441e-03
 -2.3543844e-03
  3.4608869e-03
 -1.9387217e-02
  9.6824974e-02
 -3.8687866e-02
 -8.2596205e-02
 -7.9039350e-02
 -1.3843021e-01
 -2.4601793e-02
 -3.0143425e-02
  4.5192465e-02
  1.4982615e-01
 -3.6805170e-04
  6.9005042e-03
  2.4249010e-02
 -3.7252013e-02
  7.8504682e-03
  4.7189202e-03
 -3.5472650e-02
  1.3551316e-01
  1.7847292e-02
 -4.0215097e-02
 -2.6338758e-02
  4.9406081e-02
  9.3798693e-03
 -1.5199339e-02
  8.2244605e-02
 -3.0738499e-02
  3.7767813e-02
 -1.0808007e-01
 -4.6270085e-03
 -1.9649334e-01
 -3.7978448e-02
  2.3887120e-02
 -3.7003513e-02
 -4.0430455e-03
  7.3521249e-03
  5.8956545e-02
 -1.0587955e-01
  5.1107325e-02
 -1.7830003e-02
 -3.5638225e-03
 -1.4359276e-02
 -4.6156850e-02
 -5.0551876e-02
 -8.5350193e-02
 -9.4059162e-02
 -1.6002113e-03
 -1.0906930e-01
  2.7132098e-02
  1.0249866e-01
  9.5024426e-03
  6.9231227e-02
  6.8494366e-03
 -6.0601152e-02
 -1.1985661e-01
  9.5502026e-03
  6.5270113e-03
  3.5547744e-02
  3.9949555e-02
 -1.9900016e-02
  7.5010173e-03
  1.1417078e-02
  3.6057994e-02
  5.5806204e-03
  3.5121646e-02
  5.9333492e-02
  1.1663732e-02
 -6.4840496e-02
 -2.3246676e-02
 -1.1137088e-01
 -7.0221707e-02
  3.1657778e-02
 -7.8896061e-02
  5.5625871e-02
 -3.7230026e-02
 -2.3552844e-02
  5.7773426e-02
 -1.1470271e-02
 -5.1906928e-03
  1.0947978e+00
  4.5977536e-01
 -8.8535577e-02
 -2.9790869e-01
  2.3841915e-01
  4.4093624e-01
 -7.6768863e-01
 -2.0385514e-01
  8.9757740e-02
 -5.1701212e-01
  2.2784326e-02
  7.6669450e-03
  3.6967924e-01
  6.0512799e-01
  4.8063248e-01
  4.7091720e-01
  5.3519825e-03
 -3.0292125e-02
  7.6266408e-01
 -6.5028206e-02
 -5.4475307e-01
 -9.0448819e-02
  1.5358803e-01
  5.5504549e-02
 -2.4353771e-01
  1.7029195e+00
  8.0127969e-02
 -7.8314515e-03
  2.5844833e-01
 -8.7265678e-02
  1.0780477e-01
 -2.1670492e-01
  8.9304913e-03
 -6.0611099e-01
  6.7645544e-01
  2.1525565e-01
  2.3780530e-03
  4.6864737e-02
 -2.7796024e-02
  1.3929341e-02
  4.4757865e-02
  1.7270889e-02
  2.4021799e-02
 -4.7105271e-03
  2.3409720e-01
  3.7096255e-02
  1.5504777e-02
 -8.6458161e-02
 -2.5761843e-02
 -3.1077364e-02
 -5.1441807e-03
  5.7192750e-02
  3.7462953e-02
 -3.3294354e-02
 -9.5230418e-01
 -4.0134752e-01
  2.7580025e+00
  7.2528660e-01
 -1.8349077e-01
 -1.7053903e+00
  5.8541334e-01
 -5.6871659e-01
  9.6620959e-01
 -8.5042274e-01
  2.4739280e-02
  4.6493408e-01
 -2.0767922e+00
 -3.6393049e-01
 -3.6902279e-01
 -8.3820951e-01
 -4.6985783e-02
 -1.0836370e+00
 -5.6321847e-01
 -9.4376050e-02
 -5.3064570e-02
 -1.8470908e+00
 -2.1682749e+00
 -7.9712635e-01
  1.1739902e+00
  1.5128510e+00
 -5.8328629e-01
  6.7060590e-01
 -4.8434522e-02
 -4.2726880e-01
 -8.1203800e-01
  6.2829685e-01
 -4.1830102e-01
 -1.3419700e-01
  5.9145862e-01
 -1.6691331e+00
  2.7765056e-01
 -1.3377052e-05
  2.4893815e-02
 -9.9995546e-02
  4.5085665e-02
 -4.0570516e-02
 -4.1157085e-02
  2.9002506e-01
 -3.7185273e+00
 -4.6834087e-01
 -1.0104463e-01
 -1.2241012e-02
  5.5492178e-02
 -3.2761723e-02
 -2.0698354e-01
  1.2647245e+00
  4.3623641e-02
 -6.3803449e-02
 -9.7434682e-01
  2.4561833e-01
  1.8329269e-03
  2.2217891e-01
  9.8872167e-01
 -5.0680608e-01
 -2.4221961e-01
 -5.3539073e-01
 -9.1078484e-01
  7.0544789e-03
 -1.6437307e-02
 -1.4688094e-01
 -4.7654086e-01
  6.4234078e-01
  8.2495380e-03
  1.6854646e-02
  1.0102931e-02
  6.1651480e-01
  3.6960649e-01
  6.8342614e-01
  2.7788138e-01
 -1.4842312e-01
 -5.5607720e-03
  2.1948457e-01
  1.3643403e-02
 -8.6787986e-03
  1.5897473e-02
 -6.5800148e-01
  2.9483607e-02
  3.2064676e-02
 -3.6780611e-03
 -9.1314751e-01
  1.4267202e-01
 -1.5204658e-02
 -6.1472064e-01
 -6.1142653e-01
  3.0370187e-02
 -1.7169546e-02
 -4.5532379e-03
 -3.7829962e-01
 -1.1827983e-02
 -5.5222410e-01
  5.8390047e-02
 -1.2264223e+00
  1.6757134e-01
  1.3102198e-02
  2.6206815e-01
 -2.9048791e-02
 -2.2407062e-02
  4.9337972e-02
  2.2423068e-01
  3.9380521e-01
 -5.0946549e-02
  1.6761428e-02
 -1.8425655e+00
 -5.8034748e-01
 -3.9242795e-03
  6.6063240e-02
 -2.4540618e-01
 -7.4508406e-02
 -3.2418311e-01
 -1.1544477e+00
 -3.6995113e-02
  1.8309258e-01
 -1.9945249e-01
 -3.6557728e-01
  3.3476312e-02
 -1.8173841e-01
 -1.2207267e-01
 -8.5308000e-02
 -2.7810535e-01
  2.5338974e-02
 -8.1247635e-02
  2.2015600e-03
 -1.8047093e-01
  4.0608406e-01
  8.3342209e-02
 -8.6331423e-03
 -2.4527660e-01
  6.2793583e-01
  6.5646432e-02
 -5.0170940e-01
 -2.8913966e-01
  1.0976867e-02
 -2.7343059e-01
 -1.0835334e-01
 -6.7616403e-02
  4.9972111e-01
 -1.8864372e-01
  1.9692127e-01
 -7.2905429e-02
  4.0004060e-02
 -1.5552954e-01
  1.5192250e-02
 -2.0319571e-01
  8.8231012e-02
 -3.5490073e-02
  3.0904931e-01
 -2.2438724e-01
 -5.5655275e-02
 -5.3062968e-02
 -1.8620322e-03
 -3.3945233e-02
 -1.9178575e-02
 -2.7270038e-02
 -5.3989798e-02
  3.3619635e-02
 -3.3112146e-02
 -5.2348864e-01
  3.1915271e-01
  4.2903557e-02
  8.4132336e-02
  4.3784370e+00
 -6.6060074e-02
  1.6422638e-01
 -3.7190446e-01
  1.6450435e-02
  3.6737580e-02
 -9.3646556e-02
  9.6475389e-03
  1.3265766e-01
 -1.6733341e-02
 -1.0447024e-02
  4.2584941e-02
 -7.0246402e-03
  3.3020750e-02
 -5.9947409e-03
  8.1135565e-03
  1.5357204e-01
  1.6851564e-01
 -2.6925164e-04
  1.2793875e-01
 -1.2061589e-02
 -2.9517317e-01
 -1.0413944e-02
 -6.4393375e-03
  2.0019917e-01
  4.9996114e-01
 -1.9864063e-03
 -2.9436204e-01
 -3.1204987e-03
  1.3177417e-03
  5.1761519e-02
  2.3239462e-02
 -1.3008123e-04
 -4.4493347e-02
  1.0687667e-01
  2.4412572e-03
  1.1447686e-02
 -2.7667437e-02
 -7.6966020e-03
  3.2174315e-02
 -1.0685059e-03
 -1.1294169e-02
  2.9899700e-02
  8.8110249e-03
  3.0944768e-02
 -3.4050936e-01
 -4.6457030e-02
 -9.5926479e-02
  2.8353741e-02
 -1.4092539e-02
 -1.1736382e+00
  6.4924836e-01
 -8.2136609e-02
  7.2682351e-01
 -1.3054219e+00
 -3.5348201e-01
 -2.7189309e-02
  1.5321091e-01
 -1.3764498e+00
 -4.9489096e-02
  3.0370256e-01
 -5.7054579e-01
  2.6752979e-01
 -1.0045831e+00
  1.3645335e-01
  2.6851997e-01
  4.2279950e-01
 -5.6311160e-01
  2.0673798e-01
 -6.7461908e-02
 -4.8434217e-02
 -4.5808624e-02
  3.4164733e-01
 -1.3464521e+00
  4.7268990e-02
  1.1896901e+00
 -1.5487107e+00
 -4.4274263e-02
 -5.8677858e-01
  3.3451013e-02
 -3.7340993e-01
  6.9027793e-01
 -1.6362293e-01
  4.2122293e-01
 -4.5014107e-01
 -4.3079686e-01
  7.9476282e-02
  1.2041813e-02
 -1.8799572e-01
  5.3835645e-02
  4.3678496e-02
 -7.1625166e-02
  1.0699087e+00
  5.6174511e-01
 -2.2656114e-01
 -1.9580130e-02
  4.1696772e-02
 -3.4043249e-03
 -3.5880938e-02
 -7.8022316e-02
 -9.2937881e-03
  2.2236723e-02
  6.9395238e-01
 -8.2454085e-01
 -2.7698327e-02
  8.7197828e-01
  7.7872306e-02
  5.7338768e-01
  1.1173449e+00
 -9.4613902e-02
 -4.1188493e-01
  9.5805582e-03
 -3.1584990e-01
  2.1572235e-01
 -6.8429410e-02
 -7.8505956e-02
 -2.6743194e-01
 -2.1146618e-02
 -1.3957764e-01
  4.7679403e-01
 -4.9040653e-03
  6.4230487e-02
 -1.5756899e-02
 -5.8581857e-03
  3.2414053e-02
  1.7317043e-01
 -1.5086628e-01
  2.7883506e-01
  4.1680565e-01
 -3.3616476e-02
 -1.0979234e-01
 -3.5691893e-01
 -2.4769127e-02
 -3.4693056e-01
  3.3208498e-01
 -2.0449118e-01
 -1.0718529e+00
 -1.5080786e-01
 -4.6949509e-01
 -6.4574188e-01
 -4.0592840e-03
 -4.3622020e-01
 -3.2196188e-01
 -2.1139613e-01
 -2.9392150e-01
 -2.7778357e-01
 -7.1764449e-03
  1.3828471e-01
 -1.2535959e+00
  2.7884416e-02
 -4.3578485e-01
  3.7026707e-02
  6.9389328e-02
 -1.4620979e-02
  4.8450744e-01
  1.7584290e-01
 -4.2087209e-01
 -4.4594726e-01
 -7.6657683e-01
  1.9149112e-02
  9.5620453e-01
  5.1383138e-01
  3.9905164e-02
  1.0576812e-03
  5.8955280e-05
 -3.1864968e-01
 -6.2775493e-02
  1.1524392e-02
 -2.5635876e-02
 -5.4538582e-02
 -6.8510428e-02
 -7.8524336e-02
 -3.7516449e-02
 -2.8697668e-02
 -1.3024548e-02
 -2.4297118e-02
 -3.9815199e-02
 -6.7014843e-02
  1.2539160e-03
  2.9451749e-03
  2.5609508e-05
  5.0507292e-02
 -8.5203908e-03
 -3.8737413e-02
  3.4643039e-02
 -4.4137783e-02
 -2.3720050e-02
  7.3977411e-02
  2.5244620e-02
 -8.2706800e-03
 -1.3468396e-02
 -1.6099386e-02
  4.7681607e-02
  6.3363738e-02
  6.1235528e-02
  5.2134818e-03
  2.1166291e-02
 -8.7773070e-02
 -6.7432802e-03
 -2.7364977e-02
  4.6480611e-02
 -8.4705427e-03
  4.1679222e-02
 -2.5559976e+00
 -3.5296310e-02
  4.7075577e-02
  3.5156693e-02
 -1.5027705e-01
 -6.6145626e-03
  1.4269775e-02
 -7.2662987e-02
 -2.0117497e-02
 -2.3762453e-02
  9.8935336e-02
 -7.2620446e-03
 -1.5294269e-02
 -1.0305360e-02
 -2.3682868e-02
  5.1236942e-02
  1.1673473e-01
 -1.0320900e-02
  1.5721789e-02
  1.6334372e-02
 -1.2425325e-02
 -1.2509648e-02
 -1.3786031e-02
  1.1767947e-02
 -8.8275000e-02
  1.6780470e-03
 -7.3131993e-03
 -4.0522320e-03
  6.9337257e-04
 -8.8166092e-03
 -9.8817118e-02
  5.4593887e-02
  1.1346335e-01
  5.7766656e-03
  4.4545416e-02
 -1.7687930e-02
 -6.8075672e-02
 -6.5032348e-02
 -4.8566526e-03
 -1.8012686e-02
 -7.2890723e-01
 -9.8422892e-02
  1.4636503e-01
  4.0170285e-03
  2.9867787e-02
 -4.7221724e-03
 -1.7876444e-02
  1.9388575e-02
  1.2845734e-02
 -2.2515580e-02
  8.5414968e-02
 -1.7969050e-02
  2.9696835e-02
  8.1155356e-03
 -2.1107785e-02
 -2.1391106e-03
  9.8078400e-03
  7.2522257e-03
 -4.1764211e-03
  2.8665606e-02
 -1.7658346e+00
 -1.2176288e-03
  9.8804142e-03
  5.8023447e-01
 -7.6019412e-01
 -5.3099498e-02
  3.6095615e-02
  8.4254389e+00
  1.5532990e+00
 -1.6090877e+00
  2.3737226e-01
 -5.3486777e-03
  9.5794505e-01
 -6.1744034e-01
  8.4260327e-01
  9.7558802e-01
 -9.2256993e-01
 -7.7252060e-02
 -4.0476969e-01
 -9.1717732e-01
  3.3697661e-02
 -1.7019586e-01
  1.2670177e+00
  1.0283204e+00
  1.9410102e-01
  1.3369346e+00
 -1.0961316e-01
  4.3207195e-01
 -1.0812055e+00
  8.2071865e-01
  2.4631095e+00
  5.4588526e-01
 -4.0046379e-01
 -1.6929632e-01
  9.7300154e-01
  8.9940882e-01
  6.1972622e-02
 -1.6093966e+00
 -2.6436664e-02
  4.1587445e-01
 -6.2482662e-02
  3.4322625e-01
 -6.4954007e-01
 -1.3250939e-03
  2.0138720e-02
 -6.6544488e-02
 -9.3495798e-01
  7.4413615e-01
 -8.2571041e-03
 -7.7875428e-02
  2.9628049e-03
  1.2326467e-01
  1.1829410e-01
 -1.0744941e-01
 -5.7821721e-01
 -3.9950129e-02
 -7.0708958e-03
  5.3472722e-01
 -2.5194460e-01
 -2.1585917e-01
 -1.0483702e-01
  4.0062851e-01
 -1.1038516e-01
 -1.1805157e-01
  5.1648263e-02
 -1.5797848e-01
  5.8103479e-02
 -3.9028487e-01
  2.3968922e-01
  1.0885829e-01
 -1.1750014e+00
  1.1866587e-02
  3.7097875e-02
  6.0929909e-02
  1.1892991e-02
 -7.0660941e-02
 -1.4692848e+00
 -2.3382846e-02
  1.7583643e-01
 -1.5085751e-01
 -6.3068918e-03
 -9.6775383e-01
 -6.2951010e-01
 -8.0397256e-02
 -1.4990786e-01
 -6.3757092e-01
 -1.8589234e-01
 -1.9673739e-01
 -7.7562660e-02
  1.0812403e-01
 -8.6744815e-02
  4.0516558e-01
 -6.9650823e-01
 -7.4022926e-02
 -3.5325341e-02
 -1.1074665e-01
  6.9759709e-01
 -1.7377146e-01
 -7.8963432e-03
  5.3242300e-02
  7.6450256e-04
 -1.2328878e-01
 -4.4337297e-03
 -4.6248820e-02
  8.8341366e-03
  2.3219507e-02
 -5.2624434e-02
 -2.1691196e-02
  2.6987261e-01
 -7.6269798e-02
 -3.3409372e-02
  2.7185919e-02
 -4.8093084e-02
 -2.7065551e-02
 -1.4902859e-02
 -7.7174664e-02
 -8.1580598e-03
  1.6247453e-02
  1.9858122e-02
  3.6203833e-03
 -2.7789170e-02
  1.3116114e-03
  1.0800675e-02
  1.0515999e-03
 -1.3660026e-01
  3.8678944e-02
 -9.9118836e-02
 -1.1810532e-04
  2.0235362e-02
  3.5390917e-02
  1.5132829e-02
 -5.9911650e-02
 -1.3123091e-02
 -7.8667380e-02
  6.8104751e-03
  1.3495715e-02
 -1.3731277e-01
  5.6603808e-02
 -4.9402200e-02
 -4.0810533e-02
  9.8435432e-03
 -1.1872260e-02
  1.9087473e-02
  4.0947843e-02
 -9.0334140e-02
 -2.8320071e-03
 -4.3366484e-02
  5.0720476e-02
 -1.3144487e-02
  2.6232969e-02
  1.7738191e-02
 -1.5693087e-02
 -9.0625382e-04
 -1.8835306e-02
 -1.1290730e-02
  8.1522148e-03
  3.1470171e-01
  5.4124385e-02
  7.7067159e-02
  1.0320730e+00
  2.2105910e-02
  1.6219217e-02
  1.0354275e-01
  5.6577016e-02
 -1.8600079e-03
  1.1332127e-01
 -2.7343321e-01
  6.3177176e-02
 -5.4922432e-01
 -1.3577005e-01
 -2.3292594e-02
 -4.9714096e-02
 -1.4142336e-02
 -7.7961552e-01
  6.2341135e-02
  8.6764172e-03
 -1.8667583e-01
 -2.3038594e-01
 -1.6493335e-01
  7.9576783e-03
 -3.0487191e-02
 -1.1694284e-02
  4.0653244e-02
  5.3784531e-04
 -8.1623602e-01
 -9.5601961e-02
  3.3890557e-02
 -6.5334564e-01
 -4.2568263e-02
 -3.3871004e-01
 -1.0363197e+00
 -2.6676070e-02
  2.5086166e-02
 -1.7382067e-01
  3.9581209e-02
 -7.2683431e-02
  1.1238605e+00
 -7.2121948e-02
 -2.7101953e-02
  4.3074843e-01
 -3.6967924e-01
  2.7989748e-01
 -1.4858694e-01
 -5.5651627e-03
 -4.6594277e-01
 -3.7293624e-02
 -2.0207847e-03
 -7.0779435e-02
 -1.0254717e-01
 -1.7526709e-02
 -1.6633108e-02
 -1.2725133e-02
  3.8293701e-02
  2.8457928e-02
 -6.4303651e-02
 -6.4390674e-02
  5.9545532e-02
 -3.6403638e-01
  1.4105078e-02
  4.1727245e-02
  2.6300820e-02
 -2.9567640e-02
  1.3679366e+00
 -4.3604020e-02
 -8.2824733e-03
 -1.9851821e-03
  3.7951313e-02
 -5.4066069e-02
  1.8435892e-02
  6.1257230e-03
  1.5941413e-02
  5.2168872e-04
  5.4569513e-02
 -7.4436761e-02
 -2.0025460e-02
  9.5170159e-03
 -4.6192080e-02
 -3.9546004e-01
  3.2572687e-02
 -6.7497613e-03
  1.4701089e-02
 -2.1090575e-02
  1.0090483e-01
  1.2448626e-02
 -1.5951481e-02
  3.0204255e-02
 -5.1844572e-03
 -4.2615782e-02
  2.1034297e-02
  3.9285284e-02
  3.9912197e-03
 -2.3768426e-01
 -2.0633236e-02
  4.7589306e-02
 -1.0662870e-03
  1.2311867e-01
  1.9639559e-02
  7.1350113e-04
  4.1056011e-02
  1.9593611e-02
  8.5448533e-01
 -1.0153232e-02
  5.1652081e-02
 -3.1153481e-02
  1.0396239e-02
  8.7716416e-02
 -3.5183698e-02
  1.5957238e-02
  2.4067545e-02
  2.0114876e-02
  1.4787684e-01
  6.0922853e-03
  9.7961843e-02
 -1.6177304e-02
 -4.2082377e-02
  1.4568229e-01
  1.7718185e-02
 -2.3455784e-02
 -2.9796275e-01
  3.4388383e-03
 -1.2443859e-02
 -9.6218914e-02
 -9.1310740e-02
 -4.9583223e-03
 -1.1008370e-02
  3.1396127e-01
 -2.4258323e-02
  1.3352389e-02
  3.2468423e-02
  6.7065768e-02
 -4.2325675e-02
  1.1165526e-01
 -6.1899722e-02
  1.3236882e-01
 -2.8727366e-02
  1.2801155e-02
  2.1820810e-01
 -1.5590829e-02
  7.7297956e-02
  4.3392584e-02
  3.0182898e-03
 -8.0335345e-03
 -1.3079861e-02
  1.0203846e-02
 -3.5284727e+00
  8.2452409e-04
  7.5717759e-04
  2.4182454e-02
  3.9476133e-03
 -2.2232655e-02
  3.8024023e-02
 -1.4771958e-02
  8.0656586e-03
 -3.5517134e-02
 -2.4456771e-01
  6.1322026e-02
 -1.1162931e-02
  5.1917687e-02
 -1.3098492e-03
  2.7498372e-02
  3.0778330e-03
  8.2597204e-02
 -2.5846511e-02
 -1.5742214e-02
 -9.2569450e-03
 -2.1903461e-02
  3.6094375e-02
 -2.4648036e-01
  7.0936984e-01
  1.1863021e+00
  9.9993992e-01
  8.4921104e-01
 -5.9019208e-01
 -1.5303026e-01
 -2.8266990e-01
 -2.5583443e-01
 -1.2954052e-01
 -4.4317633e-02
  8.8953024e-01
  5.1812506e-03
 -1.1870437e-01
 -8.6919684e-03
 -1.9582580e-01
 -4.4472340e-01
 -5.0368553e-01
 -8.9188153e-01
  2.5921697e-03
  3.1204689e-01
  3.8079831e-01
 -9.0033758e-01
 -3.5303102e+00
 -9.1268800e-02
 -7.1314136e-03
 -1.2964886e+00
 -4.4709420e-01
 -5.1549911e-01
 -1.2776250e-01
 -4.3798994e-02
 -2.0143867e+00
 -1.9870808e+00
 -5.7907898e-02
  1.3053688e+00
  6.2401902e-02
  2.4725425e+00
 -7.0672356e-02
 -1.1362329e-02
 -4.1747794e-01
 -1.7860519e+00
  1.2576422e-03
  2.3504691e-02
  1.9201845e+00
 -2.0859330e+00
 -4.6841305e-02
 -4.7931921e-01
 -6.3616931e-03
 -1.4745831e-02
  2.6223052e-02
 -2.0197438e-02
 -5.7635941e-03
 -5.7228220e-01
  5.8898412e-02
 -8.1505686e-02
 -2.9521771e-02
 -3.9970392e-01
  6.7736097e-02
 -1.5945247e-01
 -7.5530760e-02
 -5.9176505e-01
  3.3228770e-01
  5.2404057e-02
  1.7430810e-02
  8.6576454e-03
 -2.9327782e-02
  7.7581666e-03
  5.0701797e-01
  3.1352218e-02
  7.6841867e-01
  1.9519436e-01
 -3.3949424e-02
  3.6190577e-02
  1.9682002e-01
  7.5504653e-02
  6.9280446e-02
  2.6681134e-01
 -7.6084860e-02
 -4.8284763e-03
  9.7606170e-01
  2.2928627e-02
  1.4473517e-01
  5.2222902e-01
 -7.8292459e-02
  1.3951318e-01
 -2.3856042e-02
 -8.2295656e-02
  2.0131345e-01
 -6.4895421e-01
 -8.3866835e-02
 -5.0756369e-02
 -4.4710832e-03
  5.3475484e-02
 -6.0118735e-05
  2.7344851e-02
  2.3128790e-01
  1.5439400e-02
 -6.2309895e-03
 -5.8261339e-02
  2.9328780e-02
  4.3915395e-02
  6.6440827e-01
 -1.6168687e-02
 -4.9780671e-02
 -2.6791431e-03
 -1.1479416e-02
  1.6724250e-01
  2.2266652e-02
 -1.3752003e+00
 -3.7837398e-01
 -7.9358542e-01
 -5.8806193e-01
  3.6205298e-01
  4.4900286e-01
 -1.4421472e-01
 -9.7014326e-01
 -5.4762936e-01
 -1.0730064e-02
 -1.3209422e-01
 -5.3671730e-01
 -4.6035990e-02
 -3.6951467e-01
 -4.2463332e-02
 -1.6809720e-01
 -4.5429178e-02
  2.3757955e-02
 -6.8340572e-03
 -1.1068311e+00
 -1.1860335e+00
  1.3461876e-02
  1.9771069e-02
  3.6449570e-03
 -1.3125914e+00
 -1.0490290e+00
 -1.0049698e-01
  2.6731441e+00
 -9.3076444e-01
 -2.3899865e-01
 -5.9795827e-02
 -6.3203645e-01
 -2.4730535e-03
 -3.3474214e-02
 -1.2780912e+00
  6.3371730e-01
  1.2958175e-01
 -1.1981688e-02
  3.1908196e-01
 -1.9718078e-01
  2.2167213e+00
  1.5672058e-02
 -1.2361371e-02
 -5.4601145e-01
  7.6020166e-02
  2.0824313e-02
  2.2252396e-02
  5.2155158e-03
  4.2128604e-02
  2.1649282e-03
 -6.2543951e-02
 -1.5275188e-01
  7.0548858e-03
  2.4298796e-02
  5.9313595e-01
 -9.3279952e-01
  2.9808915e-01
 -5.2889413e-01
  1.0757766e+00
  6.1788547e-01
  8.5773915e-01
 -2.1630755e-01
  1.7244827e+00
 -3.8197917e-01
 -7.9916662e-01
 -1.0832717e+00
  3.7229180e+00
  1.2648101e+00
  7.6966184e-01
 -1.4647260e-01
 -2.4608116e-01
 -7.4758835e-02
 -2.2760917e-02
  3.9588904e-01
 -1.9477853e-01
  2.0498614e+00
 -1.4042621e+00
  1.2349676e+00
 -1.1908618e-01
 -2.1953483e+00
  6.2207103e-01
 -8.9942133e-01
  1.0692595e+00
  1.3466154e-01
 -1.3887565e+00
 -2.1289032e+00
  2.6806810e+00
 -5.1652932e-01
 -1.1538190e+00
  3.6161978e+00
 -3.3530511e-02
 -1.7549910e-02
  7.7408546e-01
 -2.7335742e+00
 -6.2487143e-01
 -2.0398261e-02
  4.5796382e-01
 -1.1098413e+00
  2.7844036e-01
 -1.4055575e-02
  3.8147707e-02
  2.7989034e-02
  9.4836988e-03
  4.3076044e-01
  4.1637469e-02
  1.9436483e+00
 -3.9947161e-01
  9.7266641e-03
  4.2140607e-02
  1.0104325e-02
  4.0446967e-04
  1.6002060e+00
 -3.0868950e-01
  3.7437588e-02
  9.5618986e-02
  2.0095536e-02
 -5.4944237e-03
 -2.2564732e-02
 -8.3822086e-03
  6.1463993e-02
  4.3650538e-02
  4.3446213e-02
  2.8140193e-03
 -1.5101447e-02
 -1.0804413e-02
 -3.0861951e-02
 -2.8358612e-02
  1.1942596e-02
  3.0989323e-02
  1.0765363e-02
  7.2871009e-03
 -2.2603029e-02
  5.4201480e-02
  2.0031285e-02
  6.5184236e-02
  1.1340707e-02
 -1.5624872e-02
  1.7880410e-02
  4.9736579e-03
 -4.3541972e-02
 -1.5591581e-01
  2.0525230e-03
  3.1924568e-02
 -1.5384527e-03
  5.1034470e-03
  1.4749344e-02
 -1.7685682e-01
  7.1999673e-03
 -5.0676607e-02
 -3.1813238e-02
 -5.6277718e-02
 -2.0615509e-02
  5.6326557e-02
 -1.0204840e-02
  2.3556102e-02
  2.3798196e-02
  2.1575000e-02
  2.6954122e-02
 -4.1889768e-02
 -5.5458911e-02
  1.0702719e-03
  2.8257331e-02
  1.8365260e-02
 -6.0250893e-02
 -8.6827144e-02
  2.9104707e-01
  5.8026654e-03
 -5.7926841e-02
 -2.1271100e-02
  9.2746438e-03
 -2.6546376e-02
 -4.7563994e-04
 -1.3104194e-02
 -1.6592024e-02
  1.6729140e-03
 -7.9821527e-02
 -1.2439578e-03
  3.2498248e-02
 -6.6313326e-02
 -5.8355160e-02
 -1.9947149e-02
  4.9205413e-03
 -3.9887425e-02
  1.1855009e-02
  4.8978448e-02
  3.1451683e+00
 -7.0788734e-02
  3.7832176e-03
 -1.9330738e-02
  2.4084324e-02
 -9.4551900e-03
 -9.0825763e-03
 -4.8149746e-02
 -1.4805187e-02
 -2.3855625e-02
 -7.5595260e-01
 -4.8094571e-02
 -7.3221266e-02
  8.5264491e-03
  1.5650110e-02
  5.7784310e-03
 -2.1238383e-02
  1.6994953e-02
  2.5758170e-02
 -1.5049314e-02
 -3.3962703e-03
  3.2460228e-02
 -1.0127652e-02
 -7.3322607e-03
 -2.3598707e+00
  2.6633129e-02
 -7.2266303e-02
 -2.6022069e-02
  6.2339138e-03
  5.3089328e-02
 -4.7056340e-02
  6.2180217e-02
  7.9128705e-03
 -3.4447908e-02
 -1.5416606e-01
 -1.6647885e-02
  7.8213245e-02
 -6.3947402e-03
 -6.9125812e-04
 -6.3604146e-02
 -1.4952505e-02
 -4.4042370e-03
  2.0909132e-03
 -2.2030566e-02
 -7.7151792e-04
  2.8361175e-02
  4.7356520e-02
 -2.4748480e-02
 -4.2137157e-02
 -4.7155796e-03
 -4.4065461e-02
 -1.8012809e-03
  1.5519582e-02
 -1.0931849e-01
  1.5418904e-02
 -4.2182405e-02
 -1.3635603e-02
  4.1575413e-03
  3.7754788e-03
 -1.1775674e-02
 -6.3735563e-03
  9.9409647e-02
  2.5909588e-01
  1.1721926e-02
  3.9968416e-03
 -9.3766615e-02
  3.0777931e-02
  2.9806262e-03
  1.6337326e-02
  3.9322440e-02
  1.1067242e-02
 -7.1500331e-02
  1.0253338e-02
 -1.4467034e-02
 -2.2322331e-03
 -2.9719938e-02
 -3.3554323e-03
  2.3924306e-02
 -2.1432536e-02
 -4.6349604e-02
  4.3450389e-04
  2.8815061e-02
 -2.2076445e-02
  2.2997987e-02
  2.8192813e-03
  1.3882981e-04
 -1.2721726e-02
 -5.7286154e-03
  2.9989123e-01
 -8.5919462e-02
 -9.4935544e-02
 -2.5727300e-02
 -1.2027864e-01
  1.3162531e-01
 -4.0068429e-02
 -2.4130220e-02
  1.5609334e-01
  8.7722413e-02
 -3.0351590e-02
  3.7905825e-03
  8.5345134e-02
  1.3807822e-02
 -1.3419282e-01
 -1.1584215e-01
 -1.6669709e-02
  8.4271617e-03
 -1.0601100e-02
 -1.5620716e-02
  2.1353627e-02
  3.1158991e-02
 -5.2634734e-03
  1.6003717e-03
 -2.5970614e-01
 -2.1794038e-02
  8.4502157e-03
  2.6831811e-02
 -1.6960229e-01
 -6.1005307e-03
 -1.6135754e-02
 -1.2290832e+00
  3.3289781e-01
  4.3351818e-03
  9.2250414e-02
  1.2480997e-02
 -1.0413573e-02
  4.8056156e-03
  6.8699438e-03
 -4.1221321e-02
  4.1439526e-02
 -1.0863082e-03
 -3.5287585e-02
  7.2734535e-02
  1.1811667e-02
 -1.3762342e-02
  1.2336231e-02
 -9.6750118e-02
 -5.1366985e-03
  9.3259690e-03
 -4.6166133e-02
  3.0492327e-01
 -4.2855939e-01
 -1.9135786e-02
  2.0568018e+00
  9.9871492e-01
  4.5030155e+00
 -3.1152880e-01
 -1.9260874e-01
 -1.6378436e+00
  1.0124976e-02
  8.0810368e-02
  9.2853136e-02
 -3.3257526e-01
  1.0543257e-02
 -1.5972617e+00
 -2.1861324e-02
 -3.6488968e-01
  4.4573124e-02
  2.2331879e-02
  6.9274604e-02
 -2.3717398e-02
 -3.2814649e-01
  1.2917219e-01
  2.7105005e-02
  4.1927647e-02
 -3.0893591e-01
  1.9341014e-01
 -4.7040892e-01
  6.1907619e-01
 -2.9072937e-01
  3.2159942e-01
  2.9858667e-01
  4.2270824e-01
 -3.7899137e-02
 -8.4287092e-02
 -5.8402838e-03
  8.7832604e-03
  7.2524913e-02
 -2.6435137e-01
 -1.6589627e-02
  2.1213984e-01
  8.5226989e-01
  1.2060910e-02
  2.8112767e-02
  1.3973498e-02
 -1.9408498e-02
 -6.0577667e-03
  1.3076283e-02
  2.3198018e-02
 -1.0084737e-02
  2.7941563e-03
  2.0617707e-02
 -4.5219652e-02
  2.6983604e-02
  3.2502420e+00
  5.0720805e-01
 -2.5161505e+00
 -1.7431710e+00
 -2.9251622e-03
  2.4720018e+00
 -2.4105768e-01
  7.4610817e-01
 -9.8396186e-03
  1.2683417e-01
  1.2304842e-01
  9.5934667e-02
  2.0273395e-01
 -9.9230692e-02
  5.5499427e-02
  1.1701231e+00
 -2.8227188e-02
  1.1944816e-01
  6.8045091e-03
  1.4437508e-02
 -4.1769605e-02
  1.1921883e-01
 -6.3185287e-01
  7.0850307e-01
  1.1818434e+00
 -4.0692683e-02
  1.3829444e-01
 -1.4191519e+00
  1.7795272e-01
 -5.2191552e-02
  5.3720891e-02
 -1.6530693e+00
  5.5921072e-01
 -1.2256520e-01
  4.4188368e-01
  2.4763334e+00
  1.8003169e-02
 -6.4769596e-02
  6.1852999e-02
  4.3228153e-02
 -5.3058200e-02
 -4.1093111e-02
 -1.5470248e-03
 -2.5220937e-01
  2.0482345e-02
 -4.3910164e-02
  9.9986203e-02
 -1.1396194e-02
  1.0173911e-01
  2.7234111e-02
  4.6042362e-03
 -8.9513198e-02
  1.4971212e-02
 -1.3692663e-03
 -8.9506563e-03
  3.7712518e-02
  1.2537261e-02
 -1.8090285e-01
 -2.1064088e-01
  5.0327862e-03
  5.7125922e-02
  9.2254253e-03
  1.3891740e-01
  4.5381881e-02
  3.2734640e-02
  9.4844736e-02
  3.6070406e-02
  9.5938183e-02
  4.9677674e-02
  1.2359044e-01
  6.1726402e-03
 -2.3724323e-02
 -3.8419336e-02
  6.0254380e-02
  9.3985394e-02
 -4.4218082e-02
 -8.0675073e-03
 -2.9839862e-02
  1.8498279e-01
  2.5122276e-01
  3.0310513e-03
 -2.5640350e-02
  1.8346526e-01
  1.4205345e-02
  2.9653168e-01
  2.7198535e-01
  1.0978286e-02
  3.3486452e-02
  5.2804403e-02
  1.2059468e-01
 -6.3741632e-02
  1.5947506e-02
  9.5356837e-02
 -2.6667768e-02
  1.0993860e-03
 -9.8409392e-03
 -1.7730014e-02
 -2.1937820e-03
  6.8945915e-02
 -3.0049909e-02
 -4.2087911e-03
  5.9752651e-03
 -1.8669695e-02
 -5.0638504e-02
 -1.0198988e+00
 -3.6770348e-02
 -2.7980031e-02
  5.6286357e-02
  2.0264965e-02
  1.8388988e-02
 -5.7301146e-01
 -4.9579558e-01
  5.2838737e-01
  2.5293982e-01
  2.2383256e-02
 -3.6889266e-02
  2.4852709e-01
 -6.6877860e-01
 -6.4148389e-02
 -1.4077432e-01
 -8.2306989e-02
 -8.3104295e-01
  5.4339468e-02
  2.5569242e-01
 -5.4551131e-01
  1.4635524e-01
  6.3019609e-01
 -9.8882389e-01
 -4.3823738e-02
 -4.1726506e-01
 -3.4962903e-04
 -3.7568796e-01
 -5.8119774e-02
  2.6382458e-01
 -3.2411508e-02
  8.9557779e-01
 -3.5066319e-01
 -9.2760064e-03
 -2.2165054e-02
  7.4628890e-02
  1.6391540e-03
 -6.1593294e-01
  3.9342761e-01
 -1.1001449e-01
  7.4909693e-01
 -3.6024742e-02
 -4.1972592e-01
 -1.1184562e-01
  8.5185997e-02
 -6.7041683e-01
  8.4882081e-02
  8.7867446e-02
 -2.1000631e-01
  1.0666007e-01
 -3.6400785e-03
  1.1679050e-01
 -1.2669182e-02
 -1.6853036e-01
  5.6756204e-03
 -2.9141439e-02
  1.7978786e-02
 -2.3788286e-02
  6.4555861e-02
 -1.3340412e-02
 -2.6676368e-02
  7.7557657e-03
 -2.4111610e-02
  1.0438084e-01
  1.1953841e-02
 -2.2434782e-02
  1.9556576e-02
 -6.2629171e-03
 -3.0107748e-02
 -2.1006754e-02
  9.8433634e-03
 -5.6811482e-02
  2.9428301e-02
 -3.4765378e-02
  3.9439633e-02
  8.1959888e-02
  8.0682617e-03
 -6.5127365e-02
  4.4357359e-02
  1.0311341e-02
  6.3016087e-01
 -2.8964439e-03
 -1.2633914e-02
  3.3278275e-02
  1.0032068e-02
 -4.3593705e-02
 -2.1778401e-02
  6.3424045e-03
 -4.8696965e-02
 -4.9877102e-03
  2.2925048e+00
  1.7191011e-02
 -1.3497880e-02
 -9.2339469e-03
  1.6829636e-02
 -5.5146024e-02
  1.3263855e-02
 -5.3938676e-02
  1.3381677e-02
 -1.2790209e-01
  1.0081200e-01
 -3.2964807e-02
 -1.7482750e-02
 -5.5732217e-02
  5.0328117e-02
 -2.1929099e-01
 -4.6646465e-02
  1.2448647e-02
 -3.8667850e-03
 -1.2234874e-02
  2.1091612e-02
 -1.6794616e-02
  2.9690547e-02
  4.3250537e-03
 -2.0187065e-02
  6.5748788e-02
  2.0579457e-01
  9.0177543e-03
 -1.5135065e-02
  3.8640918e-03
  9.6596358e-04
  1.9848891e-02
 -6.0676038e-03
 -2.3608008e-02
 -2.1546451e-02
  4.3572828e-02
  5.4666642e-02
 -2.4751678e-02
  6.9639366e-03
 -3.6216684e-02
 -5.9348270e-02
  6.1718170e-02
 -5.3994181e-03
 -1.6952038e-02
 -9.6907802e-02
  9.6607571e-03
  2.0949196e-02
  2.8023085e-02
  6.7385294e-02
 -5.5688031e-02
 -5.6361508e-02
  7.7035362e-03
 -2.4674594e-02
 -1.2022052e-02
 -6.8815447e-02
  1.1616985e-01
 -3.3587563e-01
 -1.8917717e-02
 -1.8829557e-01
  1.0463975e-02
 -3.1302967e-03
  8.3872154e-03
  4.3699690e-03
 -3.9335385e-02
 -5.0858140e-04
  6.7773074e-02
 -5.3997161e-03
 -8.4072548e-01
 -3.8285401e-02
 -2.8381240e-02
 -5.1899957e-03
  2.2950575e-02
  9.8971371e-03
 -1.9527964e-02
  6.6306330e-02
 -3.5534449e-02
  2.8807634e-02
  3.3854734e-02
  5.2527888e-03
  3.1614739e-02
  2.8437341e-02
 -1.2805534e-02
 -1.8991215e-02
  1.8201061e-03
  2.1997951e-02
  7.0425332e-02
 -3.9174095e-02
  4.8560211e-03
 -2.4859377e-03
 -8.0515608e-02
 -1.1933780e-02
 -2.6087172e-02
 -7.6896690e-02
  1.7403282e-02
  2.6316557e-02
  8.6326022e-03
 -6.3655354e-02
  1.0639312e-02
  1.3118776e-02
 -1.3938272e-01
 -2.2546530e-02
  4.3016296e-02
  6.7763897e-03
  1.8054763e-02
 -4.9081136e-02
  6.2073857e-02
 -2.7097970e-02
 -3.1578265e-02
  6.8393841e-02
 -1.4742370e-02
  2.5042065e-03
 -3.9312825e-02
  2.0141590e-02
  5.4129954e-02
 -5.3604476e-02
 -2.7492180e-01
 -9.2085749e-03
  6.5071806e-03
 -7.4833333e-02
 -1.1925880e-02
 -4.0197950e-02
 -2.3090813e-02
  8.8234106e-04
 -1.1855466e-02
 -1.2781743e-02
  5.3344937e-03
 -1.2590644e-02
  2.2895683e-02
 -9.2619453e-03
  1.4567295e-02
 -5.9577197e-02
  5.2832991e-01
  9.1498187e-03
  2.7051786e-01
  1.9844947e-02
  4.7916585e-01
 -8.1603324e-01
 -6.3665611e-01
  2.0444748e-01
  1.7476609e-01
  4.6607740e-02
 -3.1046543e-01
  4.7024593e-02
  7.4979466e-01
  4.4893885e-01
  1.3619795e-01
 -4.8745394e-02
 -1.9968051e-01
 -5.6369297e-02
 -2.8802302e-01
 -3.6228620e-02
  3.9787328e-01
  3.8601822e-01
  5.6636637e-01
 -2.1495040e-01
  2.0837617e-01
  2.2982407e-01
 -1.2483938e-01
 -9.6950401e-03
  2.5274023e-01
 -8.9053619e-01
  2.0839587e-01
  8.3669376e-01
 -3.9085481e-02
  1.5700677e-01
 -8.3569771e-01
  1.2562161e-02
  1.2938595e-02
 -4.9789090e-02
  2.8876686e-03
  4.0308589e-01
  7.0936602e-01
  5.7332043e-02
  7.9037988e-01
  7.7094056e-02
  1.8626358e-02
  2.1099129e-01
 -4.5064010e-02
  7.7540893e-03
  9.8237999e-02
 -8.7834010e-03
 -1.3298603e-02
  6.3623106e-03
  2.8818253e-02
  5.5919949e-02
 -1.0495723e-01
 -9.2803471e-02
  1.6707541e-01
 -4.8485905e-02
  1.2166708e-02
 -6.4824864e-02
 -1.4506826e-02
 -5.3859420e-02
 -2.5089657e-02
 -3.0935735e-02
 -1.2167846e-01
 -4.4237740e-02
 -1.0727691e-02
  3.5330411e-02
 -3.1589955e-02
  1.9037779e-03
  8.5665450e-02
  4.6888739e-04
 -1.3258261e-02
  5.8678955e-02
  2.3012432e-01
 -6.0679526e-03
 -6.1163124e-02
 -2.9315097e-02
  7.7166565e-02
 -3.4642971e-01
 -2.9341276e-03
 -1.6413391e-02
  2.3790551e-02
 -1.8032080e-02
 -1.0259302e-01
 -3.6118619e-02
  3.3794846e-02
 -8.5593825e-03
 -8.6966202e-02
  3.4048595e-04
 -1.2199903e-01
  5.4150511e-02
  4.5929468e-01
  5.9269555e-02
  1.5691537e-02
  3.1929128e-02
 -1.1542134e-02
  2.4618885e-02
 -1.2224713e-02
  1.3597835e-02
  1.6018521e-02
  3.6724661e-02
 -1.8521909e-02
 -6.9446005e-02
 -1.0417947e-03
 -1.8821236e-01
 -1.4816997e-02
 -1.1475583e+00
 -9.9635136e-01
 -7.7417189e-01
 -1.5927733e+00
  5.0478105e-02
 -2.2979670e+00
 -1.0402638e+00
  7.4779141e-01
 -3.6484174e-02
  5.7461383e-03
 -5.5652548e-02
  1.4076820e-01
 -9.3165152e-02
  3.0254962e-02
  1.0192483e-02
  1.6221907e-02
 -1.7366485e-01
 -6.0532842e-02
 -4.9764710e-03
 -6.4340368e-02
  2.6368197e-02
  1.8088805e-02
  6.6891837e-01
  1.0244121e-01
 -3.0167177e-01
 -9.9486485e-02
 -3.3243097e-02
 -8.1967276e-01
  7.3817417e-02
  2.6068822e-02
 -9.2152007e-02
  2.3423948e+00
  3.3502835e-03
  6.3726371e-03
  1.2084745e+00
 -1.6970100e+00
 -3.4114242e-02
 -1.0061151e-01
 -1.8371236e-02
  5.9776418e-02
  1.5886656e-03
 -2.2769846e-02
 -7.0107684e-02
  1.4708941e+00
  8.2630709e-02
  2.3836438e-02
 -1.9821663e-01
 -1.2099692e-01
 -1.5512934e-02
  2.9970139e-02
  1.1109123e-01
  8.6315773e-02
 -1.4660719e-01
 -3.0745618e-02
 -1.1602304e+00
 -6.7583978e-01
 -1.2647378e-01
  1.3854791e-01
 -4.2350373e-01
 -3.4607360e-01
  8.2231924e-02
  1.1389899e-01
  6.1370826e-01
  3.6144665e-01
  4.6747951e-03
 -3.0366087e-01
  9.0938024e-02
  2.3143236e-02
  1.6694973e+00
  5.8360749e-01
 -4.2385271e-01
  1.2720317e+00
  4.9338695e-01
 -2.4512675e-02
 -1.4271772e-02
  3.4321436e-01
 -1.6156210e-03
  5.0688881e-01
  5.3097826e-01
 -4.9704739e-01
 -3.0289435e-01
  2.7479041e-01
  3.6964029e-01
  2.9828738e-02
  7.6719433e-01
 -9.1453445e-01
  1.7629476e-01
 -4.1576855e-02
  3.8795006e-01
 -4.6079648e-01
 -1.0430814e+00
  1.0058092e+00
  6.1354208e-01
 -2.6604646e-01
 -2.8134646e+00
 -5.0942652e-02
  1.4909666e+00
  1.5604790e-01
 -2.9007148e-02
  6.9245493e-01
 -5.7144500e-03
 -6.9047540e-02
 -1.0920727e-01
  1.5486971e-01
  1.4767724e+00
  3.9241966e-02
 -2.8632399e-02
  6.9877207e-02
 -2.4930557e-02
 -6.5577261e-02
  6.6349851e-03
 -4.0449079e-02
 -4.9836740e-02
  3.1621933e-01
 -2.3250718e-01
 -1.4260247e+00
 -2.8076017e-01
 -2.7200440e-01
  6.0404673e-02
  3.1504151e-01
 -2.0034336e-01
 -2.5796847e-02
  1.4869970e-02
 -1.7964143e+00
  7.1481979e-01
  5.9574465e-03
 -4.3557563e-01
  3.5092313e-02
 -3.7897480e-01
  1.4764899e-01
 -1.4215687e-01
 -2.3429699e+00
 -2.7807436e+00
 -1.0447584e-01
 -7.5683855e-03
  2.5946192e-02
  7.3014423e-02
  4.8053071e-01
 -4.0518701e-02
 -2.1771567e-01
 -1.3979349e-01
  1.7725125e-02
 -1.0595001e-02
 -4.4810202e-02
  3.2249627e-01
 -3.0264195e-02
 -1.4433064e-01
 -4.2635721e-01
  7.9159372e-02
  4.7116842e-02
 -1.2050394e-03
  7.0082046e-02
  2.4419099e-02
 -6.7609996e-02
  2.9056692e-01
 -6.1427408e-01
  3.8442442e-01
 -4.3313256e-01
  1.0471965e-01
 -6.5717947e-01
 -7.8082490e-01
 -4.3197855e-02
 -7.7245459e-02
 -3.2216159e-01
 -3.4670654e-01
 -3.9152388e-02
 -1.5844595e-01
  1.9884150e-02
  2.0996718e-01
 -2.4354738e-01
  2.9583481e-01
 -1.1791057e-01
  3.0626231e-01
  2.1787142e-02
 -3.4813937e-02
 -9.1429248e-02
  1.1731921e-01
 -8.2435519e-01
  1.2219037e+00
  2.6574135e-01
 -4.3883204e-01
 -4.8918225e-02
 -1.1247555e-02
 -3.6921248e-02
  8.1946516e-01
 -6.7166202e-02
 -5.3701627e-01
  8.7152481e-01
 -1.0487267e+00
  5.7092005e-01
 -2.4739414e-02
 -6.4679319e-01
  4.1888320e-01
  1.1965622e-01
 -1.0581692e+00
 -1.6541213e-01
 -6.3816345e-01
  1.1506948e+00
 -5.5072911e-02
  4.1333064e-01
  8.5951853e-01
  6.7411885e-03
  1.1251795e-01
  9.9176571e-02
  5.1822889e-01
  1.4202645e-02
  7.6636344e-01
 -1.0326371e+00
  1.0344899e+00
 -2.4501379e-01
  4.9046591e-01
  1.6362998e-01
 -2.4461646e-03
 -3.6255515e-01
 -4.4647694e-01
  5.0308123e-02
  7.4931759e-01
  1.0079323e+00
 -1.2629840e-01
  1.2645309e+00
  1.0229560e-02
  8.0323540e-02
  1.6784867e-02
  1.5393152e+00
 -7.6309973e-01
  2.3462754e-01
  8.7701112e-02
  7.5821062e-03
  6.9544929e-01
  5.8254468e-01
  5.2250350e-01
 -9.0885520e-01
  1.4952527e+00
  6.7767665e-02
  3.2781426e-02
  8.9435197e-02
  2.8282553e-02
  6.9925845e-02
 -9.9168581e-01
 -1.0715218e-01
 -6.4958870e-02
 -5.3488169e-02
 -1.5188223e+00
  3.9324808e+00
  6.6261202e-02
  3.4426823e-01
  1.4059277e+00
 -8.0966249e-02
  9.6844256e-01
 -9.1893309e-01
 -2.0944815e+00
 -1.6172475e-01
  8.3948314e-02
 -4.8525013e-02
 -4.8755903e-02
  3.4040377e-01
  9.5744574e-01
  2.1549417e-01
  8.8937841e-02
 -7.0022875e-01
  1.6313369e+00
 -1.6575213e-01
 -1.7307241e-01
  2.3654583e-01
 -1.0721689e-01
 -1.1553508e+00
 -1.0778028e+00
 -4.4397071e-02
 -3.5776015e-02
  2.3580148e+00
 -6.1130220e-01
 -7.7441834e-02
 -1.7658936e-02
  6.8849415e-02
  3.8271801e+00
  3.4111515e-02
  3.1716254e-02
 -7.5578803e-01
  2.5728615e-02
 -1.6059918e-02
 -6.5245956e-02
  2.4228299e-02
  1.5410375e-02
  2.2645783e-01
 -8.9479070e-03
  2.8499300e-03
 -3.2399195e-01
  1.1189661e-02
  4.2205121e-02
  9.7057596e-04
 -4.5198098e-02
 -1.3372365e-02
  7.4000710e-01
 -1.0338945e-01
 -8.5540814e-03
  2.1394005e-02
  1.2841288e-02
 -5.0125115e-02
 -9.6873724e-01
  4.3300408e-01
  4.0396032e-01
 -2.9488251e-02
  4.1653320e-01
  6.6392072e-03
 -2.0766987e-01
 -1.4894197e+00
  4.0765002e-01
 -2.0389341e-01
 -2.9938908e-02
  4.9730706e-01
 -5.9159201e-01
 -1.9251554e-01
 -6.7439562e-01
 -1.3199568e-01
  1.5588741e+00
  1.1005439e+00
 -4.9214557e-02
  6.6355936e-02
  3.5953933e-01
  2.8773052e-01
 -4.4176278e-01
 -1.5795359e-02
  1.5121126e+00
  6.5772241e-01
  2.3549637e-02
 -8.8190578e-02
 -3.8714681e-02
  2.6300368e-01
 -6.9974892e-02
 -4.0135720e-01
  2.0410725e-01
  1.3969661e-01
 -2.4069615e-01
  4.0465114e-01
 -3.2439318e-01
  6.1844800e-02
  9.3265700e-01
 -2.6936647e-01
  2.6760757e-01
  6.6307403e-02
  8.1134722e-02
  2.2487077e-01
 -2.4338413e-02
  3.1094300e-03
 -1.3536249e-01
 -2.3191556e-01
  3.6216262e-01
  4.5590481e-01
  5.8572325e-03
 -2.1612002e-01
 -4.0213268e-02
  2.5527583e-02
  2.6178479e-02
 -6.3719320e+00
  3.3604737e-02
 -1.8815460e-02
  2.3570508e-02
  2.9246315e-02
  4.6893578e-02
 -5.8284183e-03
 -1.5230349e-02
 -1.6731860e-01
  8.0525288e-03
 -1.2994420e-02
  2.2713439e+00
  1.9799165e-02
 -1.6170545e-02
  2.8611857e-02
  6.0038049e-02
  9.5661357e-03
  5.2071728e-02
 -1.8301962e-02
  1.4217163e-03
 -1.0313645e-01
  3.0881162e-03
 -4.4305123e-02
 -5.2655306e-02
 -2.0329235e-04
 -1.6866125e-02
 -7.5051654e-03
 -1.2669145e-02
 -6.5906726e-02
 -3.8007978e-02
 -8.3013985e-04
 -4.8375977e-03
  1.9914597e-02
 -2.8310588e-02
  2.5322748e-02
  7.3064290e-02
  9.9375029e-06
  1.3941203e-02
 -1.1685507e-03
 -1.9636478e-02
 -6.9662360e-03
 -1.2554487e-03
 -7.6219575e-03
 -1.4406117e-03
 -2.8020700e-02
 -2.0771585e-02
 -8.9125633e-02
  2.6040282e-02
  2.1514792e-02
 -2.7239239e-02
 -1.6991379e-02
 -7.8363854e-01
  1.3662491e+00
  2.6710096e-01
  3.9141053e-01
  7.9031253e-01
 -6.1397847e-02
  5.5463392e-01
 -1.0192621e-01
 -1.4475379e+00
 -4.0750828e+00
 -9.1115952e-01
 -1.0214769e+00
 -2.8177891e+00
 -9.1801637e-01
 -1.0751166e+00
  2.0432472e+00
 -1.2857863e+00
 -4.8359209e-01
 -1.3010572e+00
  6.1677897e-01
 -2.1307170e-01
 -1.0149252e-01
  1.1754844e+00
  9.3369502e-01
  1.0988019e-01
 -2.6641965e-01
  7.2134060e-01
 -1.9123560e-01
 -8.3270144e-01
 -1.8617502e+00
  4.7763724e-02
  1.2761933e+00
  3.1144097e+00
 -2.6224610e-01
  3.4694739e-02
  9.0610653e-01
 -8.4956810e-02
  2.1817198e-01
 -1.1115915e-01
 -2.2450507e-02
  2.1892729e-01
 -5.5324042e-01
  3.6456415e-01
  3.7605873e-01
 -3.3749882e-02
 -2.2577572e+00
 -5.4189702e-03
 -2.2962859e-02
 -1.2980998e-03
 -4.0535194e-01
  2.7006671e+00
  2.1526554e-01
 -1.9868568e-02
 -7.3643260e-02
  3.3094543e-01
 -3.6707121e-01
  6.6582566e-01
  2.2831795e+00
  1.9028065e+00
  3.5716549e-01
 -1.3335064e-01
 -9.9631029e-01
  3.3864179e-01
  2.1202020e-02
 -8.2810664e-01
 -3.8192082e-02
  3.0926499e-01
 -1.0983768e+00
  1.1129720e+00
  1.7856379e+00
 -1.3970153e+00
 -2.5888755e+00
 -1.1603359e+00
  5.9977360e-02
 -8.5340083e-02
 -3.6080643e-03
 -9.5627189e-01
 -1.6871105e+00
 -2.3460236e+00
 -3.3777863e-01
 -1.8483690e+00
 -9.0569139e-02
 -2.8150564e-01
 -1.8393163e-02
 -3.9371520e-02
  6.9055706e-01
 -6.6127911e-02
 -1.8763217e+00
  1.5489231e-01
 -2.2475190e+00
  1.5243637e-02
  4.3503541e-01
 -2.0956293e-02
 -1.7892469e-02
  2.0533141e-02
  3.1578115e-01
 -1.8739543e+00
 -1.2420120e-02
 -1.1729064e+00
  2.2630636e-03
  3.7335884e-04
  1.0140501e-01
 -1.7809652e-02
  9.9593416e-02
  6.3946733e+00
 -1.0062943e-01
  1.5098339e-01
  3.7889499e-02
 -6.5521550e-01
  1.8840632e+00
 -1.0544081e+00
  1.5920161e-03
  2.3709947e-01
 -5.5361503e-01
  1.2863332e+00
  8.5284644e-01
 -2.3676832e+00
  1.1939285e+00
 -1.2066720e+00
  1.4732952e-01
 -2.0565653e+00
 -3.0624931e+00
  1.2385635e+00
 -1.2934999e+00
  9.9995977e-01
 -1.7292635e+00
  1.1732477e+00
 -1.5387799e+00
 -6.6247910e-01
  3.6119912e-02
 -2.1834722e+00
 -8.2959557e-01
 -1.0733471e+00
  1.8464433e+00
 -3.9388567e-01
 -5.5694050e-01
 -1.4576834e+00
 -3.3991870e-01
 -1.2137616e+00
 -6.7155230e-01
 -3.2407367e+00
 -6.6091287e-01
  2.4427271e+00
  8.4346431e-01
 -3.0032427e+00
 -2.0891438e+00
  6.9895822e-01
  4.8536777e+00
 -3.8537893e-02
 -2.0691917e+00
 -8.4171236e-01
  9.6054238e-01
  1.4552507e+00
  4.9678564e-01
  2.3787068e-01
  3.3135053e-02
  7.9290634e-01
  1.0020164e-01
 -1.4644351e+00
  1.9885737e-01
 -2.0996156e+00
 -1.5949729e-01
 -9.0062785e-01
 -5.9712352e-03
  1.9513201e-03
 -4.9190772e-01
  1.5122319e-02
  4.8585623e-03
 -2.0682449e-02
  9.1698304e-02
 -1.6381061e-01
  4.9522863e-04
 -2.4468242e-04
 -2.7077511e-02
  3.5869242e-03
 -1.1624054e-02
 -2.8135601e-02
 -6.4825546e-03
  3.4300283e-02
 -4.6089082e-03
 -4.8731300e-03
 -1.8922675e-03
  1.4089547e-02
  1.2227634e-01
 -1.2544196e-02
 -9.1748079e-03
  1.7346079e-02
  9.6918112e-03
  2.4482533e-02
  1.1578912e-02
  5.9814196e-02
 -1.1985935e-02
  2.1749331e-02
 -3.3980499e-03
  9.6990332e-02
  7.7777214e-02
 -1.2322742e-02
  7.5359516e-02
  1.2891307e-02
  2.5390612e-02
  1.5514292e-02
  1.9457631e-03
 -9.5817437e-03
  1.8447977e-02
  3.7688512e-02
  2.2405798e-02
 -1.3586547e-02
 -7.1496107e-03
  8.4811896e-03
 -6.0506299e-02
 -6.0272790e-03
  2.4709650e-03
 -5.5134770e-02
 -2.6559895e-02
 -8.7620802e-03
 -9.6657127e-03
 -1.0695043e+00
 -1.5171522e-01
 -6.4997119e-03
 -6.5590018e-01
 -6.9324201e-01
 -3.1033143e-01
 -2.4286982e-02
 -5.8567321e-01
  3.4453806e-01
  1.4350357e+00
  2.2750376e-01
 -5.4041260e-01
  2.2476880e-02
  6.1927998e-01
 -3.8076127e-01
 -1.9370307e-01
 -5.9598751e-02
  3.6054887e-02
 -2.7287617e-02
  4.4797137e-02
 -1.1157438e-01
  4.4405538e-01
  5.5554722e-02
 -1.2903818e+00
  2.0825227e-01
 -2.5400898e-01
 -6.9858962e-01
 -4.5014602e-01
  2.4284540e-02
 -5.2526176e-01
 -1.9998282e-01
 -3.0076358e-02
 -1.0152329e-01
 -1.4402786e-01
 -1.6154543e-01
 -2.6102424e-01
  2.5937453e-01
 -1.3454618e-01
 -1.4517134e-01
  1.0161849e-01
 -3.3441379e-03
 -2.2353185e-03
 -3.8587230e-01
 -3.5438957e+00
 -3.8160405e-01
  7.0057809e-01
  1.1529461e-01
 -5.1045138e-02
 -1.4049536e-01
  2.8049788e-01
  4.0250430e-01
  2.9931316e-01
  8.8427681e-03
  2.7043849e-01
 -1.4694277e+00
  3.1018159e-01
  2.5143948e-01
 -2.0117831e+00
 -1.2215955e-01
  9.2468810e-01
  8.3631009e-01
 -8.9761621e-01
 -1.2290138e-01
 -3.5593757e-01
  2.1611705e+00
  5.5673499e-02
  1.1183690e+00
 -2.9745426e+00
 -1.0970351e+00
  2.0285186e-01
 -2.4964428e-01
  2.9704232e+00
  4.7178090e-01
 -8.2139874e-01
  2.9470138e-02
  1.4125934e-01
  2.9486194e+00
  1.1028985e+00
 -7.5451815e-01
 -1.1586633e-01
  1.3636621e-02
 -4.1808406e-01
 -6.3028216e-01
  2.9996714e-01
  1.3381320e-01
 -7.2092074e-01
  6.0047328e-01
 -5.8170326e-02
 -6.5227956e-01
  2.7665024e+00
  9.9873960e-01
 -9.7628647e-01
  1.4789024e-02
 -2.2290128e-01
  1.1231734e-01
 -3.0597061e-01
 -7.9787129e-01
  2.5585987e-02
 -3.9751315e-01
  1.4975341e-01
 -6.5677077e-02
 -3.4157440e-02
 -8.1833154e-03
  4.8473183e-02
 -4.9035987e-03
  6.9754344e-01
 -6.9371536e-03
  3.4949932e-02
 -1.3185315e-01
 -6.1035413e-01
 -6.9750264e-02
 -5.7441026e-01
 -7.1433413e-01
 -5.1349059e-02
  4.2719148e-02
  1.9313657e-01
  4.9200380e-01
 -1.0623050e-01
 -1.1877700e-02
  1.4563394e-01
 -7.7828217e-01
 -3.2079965e-01
  3.8191932e-01
 -7.8240669e-01
 -3.0593842e-01
  7.0406300e-01
  1.1651655e+00
  4.5709737e-02
  9.3917096e-01
  4.4072764e-03
  1.1794627e-01
 -2.4482299e-02
 -1.2666610e+00
 -3.5042343e-01
  4.2560694e-01
 -1.9881980e+00
  5.6241184e-01
 -3.3485657e-01
 -2.0790417e-02
  5.2162014e-02
  7.7265036e-01
 -1.5415701e+00
 -8.3966869e-01
  2.7258241e-01
 -3.1721879e-02
 -7.2716576e-01
  1.0198804e-01
 -5.1298641e-02
  1.5593959e+00
  5.9511267e-02
 -1.9155435e-02
  1.1750014e-02
  5.0684661e-01
 -6.6476479e-02
  1.0157499e-02
  6.8285115e-02
 -8.5161038e-02
  5.9454173e-02
  4.4767895e+00
  2.5110516e-01
 -6.4158686e-03
 -1.1726177e-01
  7.1079552e-01
  1.5413196e+00
  3.9787192e-02
  1.4399048e+00
  2.8476067e-02
 -1.5934283e+00
  4.8170498e-01
 -4.1689612e-03
 -1.8072683e-02
 -2.6064023e-01
 -2.4224584e-01
  3.3442605e-02
 -1.0004063e+00
  1.1232434e-02
 -1.4757819e-02
 -1.8231085e-02
 -1.0618362e-02
 -8.2521296e-01
  6.5407836e-01
 -8.2386881e-01
 -5.4504694e-03
  9.8472543e-02
  6.2418956e-01
  9.3407375e-01
  3.3240214e-02
  4.1613270e-02
 -5.3649498e-03
 -2.6147015e+00
 -1.2748985e-01
  4.2223860e-02
 -7.7900809e-01
  5.8384281e-01
  7.1603632e-01
  3.0786481e-01
 -5.0060503e-02
 -3.6336559e-01
 -6.4784557e-01
 -3.3732483e-01
 -7.4221566e-03
  1.7454310e-03
 -1.5961407e-02
 -2.3701960e-02
 -1.4734926e-02
 -8.8471550e-01
 -4.1488713e-01
 -7.2738990e-02
 -1.4739008e-02
 -5.4747951e-03
 -1.2401399e-03
  6.1135683e-02
 -3.0863374e-03
  2.3747017e-03
  6.2724106e-02
  4.9693245e-02
 -8.9134556e-01
  2.4329281e-01
 -4.8488438e-01
  2.9742470e-01
  5.2526381e-02
 -3.6155310e-01
  8.1158215e-01
  4.7134317e-02
  6.6825233e-02
  6.0895020e-01
 -5.8670747e-01
  2.1364121e-02
  3.5813451e-01
 -3.9869806e-01
  6.5918393e-02
 -4.3963537e-01
  1.7630894e-01
  4.0041879e-03
  1.6363411e-01
  1.8301657e-01
  3.2195663e-01
 -1.4730519e+00
 -3.8084105e-01
  7.4853820e-01
 -1.8898135e-01
  9.0351008e-02
  1.5646184e-02
 -3.4154916e-01
 -6.4285986e-02
  1.5912054e-02
  1.3402970e-01
 -3.1265095e-01
 -1.2020066e-01
 -4.1753990e-03
 -3.5436801e-03
  2.9743960e-01
  6.0551274e-01
 -3.8125077e-01
  8.1074244e-01
 -1.0607666e-01
 -1.2351543e-01
  1.4676045e-01
  4.5802556e-03
  2.0954235e-02
  3.8541150e-01
  3.6574110e-01
 -2.5243089e-03
  1.3124617e-02
  5.1003858e-02
  3.0243450e-03
 -2.9362163e-01
  6.3306555e-02
 -2.0380449e-01
 -1.3021010e-01
 -9.8312181e-01
  7.5036228e-01
 -2.0268171e+00
  4.9169432e-02
 -2.2756410e-01
 -5.7182502e-02
  1.8919954e+00
  1.8794503e+00
 -2.5466151e+00
  1.0178573e-03
 -1.0850999e+00
 -7.8331226e-01
 -1.7537692e+00
 -1.2696577e+00
 -1.6322266e+00
 -9.8444939e-01
  2.1048508e+00
 -6.2642366e-01
  4.8333833e-01
 -1.9603393e+00
 -8.9547193e-01
  5.4954565e-01
 -1.5440565e+00
 -3.0404391e+00
 -4.4548741e-01
  3.0031210e-01
 -2.6452079e-01
 -6.3621211e-01
 -2.4646811e-01
 -2.2506692e+00
  2.6202637e-01
 -1.3582121e+00
  3.5880268e-01
 -1.6639723e+00
  1.3078487e+00
 -6.1949152e-01
 -4.2376044e-01
 -1.1361223e+00
 -2.7886498e-01
  2.4970988e-02
 -6.4888811e-01
  4.9932349e-01
 -1.1624961e+00
  2.1159653e-01
  8.4113300e-01
  2.1951094e-01
 -5.0809860e-01
  3.3348808e-01
  3.5721291e-02
 -1.3298866e-02
  1.1353852e+00
  5.9068942e-01
 -6.2340133e-02
 -5.9064102e-01
  7.7507544e-01
  1.0636991e+00
  3.8805085e-01
  9.5672667e-01
 -1.2240809e+00
 -6.9173843e-01
  1.9011631e+00
 -1.7764874e-01
  2.3957945e-01
  1.1846172e+00
  2.6000768e-01
 -5.3275902e-02
  3.7101045e-01
 -3.0938298e-01
  1.4396840e-01
 -1.6956210e-01
  3.4026819e-01
 -6.3357733e-02
 -4.7429186e-01
 -2.3328765e-01
  4.9386203e-01
  5.4908484e-01
 -1.0002433e+00
 -1.1313742e+00
  8.8613540e-01
  9.4973254e-01
  1.4866455e-01
 -2.9871732e-01
  2.3231179e-01
  3.2103813e-01
 -4.1246948e-01
 -1.1407034e+00
 -9.1965877e-02
  3.7709957e-01
 -1.0416114e+00
  5.2584910e-01
  8.1672378e-02
 -1.4365900e-02
  9.9801219e-01
 -8.7094784e-02
 -6.5354079e-01
  2.7543896e-01
  2.6935902e-01
 -7.1690339e-01
  3.0309400e-01
  1.8481961e+00
  3.6796201e-03
  1.9984635e-02
  1.9606834e-03
 -1.7043175e-01
 -1.8066972e-01
 -5.5027276e-01
  7.3536132e-03
  2.4007272e-02
  2.8777984e-01
  2.7601314e-01
 -3.1572720e-01
  6.0488783e-02
 -1.6889843e-01
 -8.6188704e-01
 -8.3553421e-01
  9.5317882e-01
 -6.7144942e-01
  6.4928204e-01
  9.0778433e-03
 -2.0316978e-01
  9.1811574e-01
 -1.0073514e+00
 -1.1966171e+00
  6.7951584e-01
 -3.5858646e-01
  7.1511847e-01
 -1.1531831e-01
  4.5429543e-02
 -3.2835639e-01
  2.2450306e-01
  2.5484946e-01
 -4.1916808e-01
 -7.8988421e-01
 -2.9327369e-01
 -6.5423775e-01
  6.3136590e-01
  8.1640005e-02
  1.4682110e-01
  9.6463263e-03
  1.2382684e+00
 -4.0594345e-01
  1.0779858e-02
  4.2420481e-03
 -7.5939202e-01
  1.2057842e-01
 -3.0011499e-01
 -3.1980187e-01
 -4.0600009e+00
  6.1796576e-02
  4.1503942e-01
 -2.9508725e-01
 -1.0309341e-01
  5.9675616e-01
  3.6352545e-02
 -9.4227754e-03
  5.9839487e-03
 -1.4448781e-01
  4.0877709e-01
  1.1685997e-01
  5.5076998e-01
  3.1139052e-01
 -1.3356749e-03
  3.1237099e-01
 -1.0895338e+00
  1.2324714e-01
 -7.2135013e-01
  1.5089008e-01
  9.6471238e-01
 -2.0126981e-01
  4.0148452e-01
  8.1277853e-01
  4.6359277e-01
 -1.3022789e+00
 -7.3062557e-01
 -9.0613288e-01
  1.4921292e+00
  1.0712664e-01
  5.7632040e-02
  2.6392904e-01
 -1.1738499e+00
 -2.3393627e-01
 -5.0946867e-01
  3.9145452e-01
 -2.5789002e-01
 -3.6678341e-01
  9.9781030e-01
  1.4916211e+00
 -2.4813596e-02
 -1.0884016e+00
  2.0801818e+00
 -1.2642745e+00
 -8.2735598e-01
 -7.0051265e-01
  5.6386070e-04
  2.9947457e-01
  1.9891748e+00
  4.7126222e-02
  1.4481431e+00
 -3.2619569e-01
 -4.0805405e-01
 -2.8107774e-01
  1.4168620e-01
  4.3454194e-01
  1.5863466e+00
  1.2878411e+00
 -4.0990457e-02
 -5.5604923e-01
 -2.1415010e-02
 -1.0628333e-01
  4.3550201e-02
  2.1910043e-01
  2.0570891e-01
  2.9846979e-03
 -7.2405934e-01
 -6.3211031e-02
  6.0166113e-02
  3.8183734e-01
  4.7087083e+00
  3.3058953e-02
  4.6761169e+00
 -1.5507668e-02
 -1.7605238e+00
  5.0813578e-02
 -2.4655912e+00
 -1.3024592e+00
  1.5180372e-01
 -3.1128747e-04
  1.8147311e-01
 -2.9916000e-02
 -3.7628135e-01
 -1.5682663e-01
  1.0116582e+00
  2.7140347e-02
  4.7608286e-01
 -3.2956848e-01
  4.1034133e-03
  2.4257392e-02
 -1.0311382e-01
 -2.6570529e-02
  7.5922918e-01
  3.1557271e-01
 -8.4890202e-02
 -3.3925608e-02
 -1.3951429e+00
  1.1411787e+00
 -3.5502021e-03
  2.0169944e-03
 -1.2708965e-01
 -1.6643217e-02
 -6.9717593e-02
  1.2944645e-02
  2.6122788e-01
  7.4883766e-02
  2.2874627e-01
  9.3881316e-02
 -5.5550598e-04
  2.6047233e-01
  6.4704306e-03
  1.7724581e-02
  1.2165993e-02
  1.2129346e-01
  2.5156010e-03
  1.5814282e-02
 -3.5980763e-03
 -2.8925955e-02
  2.3279795e-02
 -2.5217574e-02
  6.0132265e-01
  2.2702843e-02
  1.5523629e-02
 -3.4440082e-01
 -1.2048368e+00
 -1.0813099e+00
  1.2137284e+00
  2.2839040e-01
 -1.9727467e+00
  1.3917331e-02
  2.6328126e-02
 -5.3318258e-02
  2.2026757e-03
 -4.5576900e-02
  4.8230278e-01
  9.1842739e-03
 -2.3473905e-01
  1.0783077e-02
 -1.8685795e-02
  2.8323668e-01
  1.6954415e-02
  1.3749023e-01
 -7.8309096e-02
  9.0371788e-01
 -4.2345222e-02
 -1.7458870e-01
 -4.6163347e-01
  1.1903651e-01
  1.0274268e-02
 -9.3805930e-03
  9.7190049e-03
  5.6914128e-03
  9.4665006e-02
 -7.0006205e-03
  5.8630966e-03
  4.3383244e-02
 -1.9140474e-02
  2.3180159e-04
  1.4965387e-01
  4.1902657e-03
 -1.9762414e-02
  2.8627843e-02
 -1.4159776e-02
  8.1564166e-02
  1.6528312e-02
 -2.0224825e-04
 -5.4751698e-02
 -2.3727521e-02
 -1.1488540e-01
 -1.4911488e+00
 -7.8607506e-01
  4.3245710e-02
  7.0621967e-02
 -2.7640127e-02
  4.2090798e-03
 -5.6144852e-02
  8.2473338e-02
  9.2841119e-01
  8.1816500e-01
 -1.8254246e-01
 -7.7830321e-01
  2.1215308e-01
 -1.1582367e+00
  8.1391849e-02
  9.5479357e-01
 -8.2501538e-02
 -6.5746534e-01
 -4.5953315e-01
  2.8053549e-01
 -7.2286475e-01
 -9.3068308e-01
  4.5406529e-01
  5.1763731e-01
 -4.5948893e-01
 -4.9682651e-03
 -6.9793351e-02
  3.0253729e-02
  1.5593772e-02
 -1.6929579e-01
  3.5920382e-02
  1.1075634e-01
 -7.9510045e-01
  9.9180979e-01
  3.0286264e-01
 -6.1417145e-01
 -1.0089715e-02
 -5.1672772e-02
 -1.8472417e-01
  7.2080648e-01
  2.9516421e-02
 -1.1851395e-02
  1.7914245e-01
 -1.3472737e-01
 -1.9770865e-01
 -1.1952265e-01
  1.2922850e-01
  2.1228383e-01
  5.0422166e-02
  8.2319307e-01
  6.0495071e-02
  1.0155083e-02
 -1.2574799e+00
 -3.0267429e-01
  4.1953847e-02
 -3.0870616e-02
  4.6854168e-02
 -2.7217776e-02
 -4.4405571e-01
  3.6673367e-01
  9.4215922e-02
  4.0288835e+00
  6.0074180e-01
 -1.5227620e-02
 -1.3319217e-02
  5.8076132e-02
  3.0146259e-01
 -4.6108268e-02
 -5.7254042e-02
 -4.3102613e-01
 -2.2824091e-01
 -5.5276202e-03
 -1.9924226e-03
  1.0758940e-02
  3.0882308e-02
 -3.4239152e-03
  1.6440102e-01
 -6.2960392e-01
 -8.0467969e-02
 -1.6324831e-02
 -2.6167700e-01
 -2.0484950e-01
 -6.8729352e-03
 -1.2997919e-01
  2.4447713e-02
 -6.6505573e-03
  5.6229018e-02
 -2.8046083e-02
  5.9483450e-02
 -7.2611250e-02
 -2.6332870e-01
  1.8459860e-02
  1.4479487e-02
 -1.2841181e-01
 -2.4458456e-03
 -8.5794017e-02
  6.3630459e-03
 -2.2234453e-02
 -1.7963693e-03
  1.4997083e-02
  1.0132284e-01
 -1.1476696e-02
  3.9727062e-02
  8.7722866e-03
 -6.1904085e-03
 -1.6423963e-01
 -1.3343249e-01
 -2.1110553e-02
 -5.2559920e-02
 -5.5991221e-02
 -1.0385202e-01
 -2.9739818e-02
 -2.9994987e-02
  1.8465966e-02
 -1.2082101e-02
 -5.1594988e-02
  7.9010201e-01
 -1.1351333e-03
  6.1150651e-02
  2.2459045e-02
  7.0806686e-03
  2.3390818e-04
  3.5635573e-01
 -4.6485156e-02
  1.6388519e-02
 -1.2274769e-01
 -5.8457423e-03
 -7.9151080e-04
  1.5989039e-02
 -6.3548319e-02
  8.0136699e-05
  5.0817668e-03
 -1.0689983e-02
 -1.4220858e-02
 -8.1027448e-03
  6.1904062e-03
 -1.0139379e-01
  2.0200871e-03
  2.5870450e-02
 -3.0096535e-02
  4.4082925e-02
  5.8966195e-03
 -1.9368391e-02
  2.6629046e-02
 -3.3310987e-02
 -1.7192287e-03
  7.4668415e-03
 -2.9903684e-02
  1.8866070e-02
 -1.1421388e-02
 -1.5692207e-01
  1.3423071e-02
  1.5542084e-02
 -4.8831631e-03
  3.2492075e-03
  1.1111211e-02
 -1.8297384e-02
  3.6969218e-02
 -3.0390874e-02
 -2.1939164e-02
  6.2230051e-02
 -2.7393168e-02
  1.1884357e-02
  7.0451871e-02
  1.6684940e-02
 -3.2037102e-02
  1.5551807e-02
 -8.3672687e-02
  6.1810273e-03
 -2.8705468e-02
 -3.4528017e-01
 -3.6114186e-02
 -3.0629569e-01
 -1.9132060e-01
  3.7447874e-02
 -2.6352397e-01
  8.2324415e-01
  1.2069040e-02
  6.8451330e-04
 -2.6972535e-01
  3.6158001e-01
 -1.7784284e-03
 -8.2248850e-03
  1.6340286e-02
  3.5892722e-01
 -4.0798642e-02
  7.4114546e-02
  4.4264521e-02
  3.8511896e-01
 -8.3858527e-02
 -6.6754319e-02
 -5.0965372e-02
  1.3402398e-01
  3.7178850e-01
  1.5674537e-01
  1.6362743e-01
  1.1855219e-01
 -2.6484010e-01
  7.2090256e-01
 -9.9201843e-02
 -7.7725207e-03
 -1.7842339e-02
  2.1628673e-01
  6.5435171e-02
  4.5555523e-01
  1.2143419e-02
  2.4354868e-01
  6.4945477e-01
  2.0528811e-01
  6.2563270e-03
  1.9595185e-01
 -5.8052797e-02
  1.5460695e-01
 -3.1435224e-01
  2.9177295e-02
  1.0551708e-01
  4.1680075e-02
  2.9746161e-03
  3.6829110e-02
  1.4772616e-02
  1.8653139e-02
 -1.2671711e-01
 -7.1567409e-03
 -1.7746320e-02
  1.7956507e+00
 -2.4750876e-01
 -3.0285358e-01
  1.1848409e+00
 -7.3595621e-02
 -4.4671059e-02
  2.8058054e-02
  3.0212125e-01
  5.7601603e-04
  4.9092937e-02
  8.1983203e-01
 -2.8687924e-02
 -1.0835463e-01
 -8.3100079e-03
 -3.9532833e-02
 -3.7098881e-02
 -4.7082145e-02
 -7.9521023e-02
  1.8031132e-01
 -3.5527352e-02
 -3.3475187e-02
  5.2071804e-01
  1.6855680e-03
  7.5679712e-02
  8.0021620e-03
 -1.0693492e-01
  1.2642053e-02
 -6.1755400e-02
 -2.4816506e-03
 -2.3788428e-02
 -8.9292768e-03
  8.7392673e-02
 -7.6499302e-04
 -3.5445996e-02
 -4.3061879e-02
 -1.6431311e-01
 -3.5429195e-02
  6.6744369e-03
 -5.7449572e-02
  8.4357969e-02
  3.0404229e-02
 -2.0012585e-02
 -1.4884626e-02
 -2.2917770e-02
 -3.6576661e-01
  7.6323636e-03
 -3.8717464e-02
  2.8833546e-02
  8.2883704e-03
  8.9446872e-02
  1.1213128e-01
 -2.1870289e-02
 -6.1939117e-03
  1.9126197e-02
  3.6239472e-01
  1.1771331e-01
  4.0496564e-01
 -9.1475606e-01
 -3.8565537e-01
  4.4250581e-01
  6.5083897e-01
  9.8684716e-01
 -2.7302963e-01
  3.5683733e-01
 -3.9045161e-01
 -9.3721546e-02
  2.9805943e-01
 -6.4334436e-03
  2.1148762e-01
  9.3547273e-01
  1.8472866e-03
  6.2883681e-01
  3.0864683e-01
 -1.9234207e-01
  5.8766168e-01
 -5.9162915e-01
  5.1525903e-01
  8.0619387e-02
 -5.6494266e-01
 -1.2583934e-02
 -5.0842875e-01
 -3.1027159e-01
 -6.8778765e-01
 -9.5928401e-01
  2.4512145e-01
 -3.5871011e-01
  2.0926628e-01
  6.1179765e-02
  3.8727637e-02
  5.3971887e-01
 -9.5893741e-02
 -1.3994859e-01
  3.7740588e-02
 -5.2349051e-03
 -6.3653916e-01
 -4.5361808e-01
 -1.1946374e+00
  1.4485326e-02
 -1.1308066e-02
  1.9639228e-01
 -2.4604335e-02
  2.7975512e+00
  8.7677464e-03
  1.1530335e-02
  8.5961550e-02
  8.6136330e-03
  2.1420496e-02
 -2.6668865e-02
 -1.6597503e-01
 -2.6419399e-02
 -2.5752455e-02
  2.2540785e-02
  2.6378188e-02
  4.2183936e-02
  6.9381393e-02
  1.6552801e-03
 -1.1699587e-02
 -3.5178149e-04
 -2.9843306e-02
  1.9916428e-02
 -2.5447857e-02
 -1.2024173e-02
 -3.2670416e-02
 -3.4336053e-02
 -1.2730257e-01
 -9.9709183e-03
  9.4663911e-03
  6.1436251e-02
  1.8658029e-02
 -3.1867120e-02
 -5.3101248e-01
 -1.8718051e-02
 -1.0524580e-01
 -2.0475714e-02
 -1.1103904e-02
  3.6514431e-02
  3.2722414e-02
 -1.0920619e-02
 -3.2468740e-02
 -7.3746271e-03
 -9.4308689e-02
  4.0898532e-02
  3.9052606e-02
  9.7841118e-03
 -6.5638344e-03
 -4.2926233e-02
 -1.8290753e-02
 -2.8101785e-02
 -9.0580899e-05
 -5.5903118e-02
  4.5203365e-02
 -2.1703425e-03
 -2.7790809e-02
  7.4166842e-02
 -6.7867562e-02
  8.5888028e-02
  4.7523266e-04
  4.4039145e-02
 -3.7614769e-01
 -2.9800838e-02
 -1.4422716e-02
  6.6950344e-02
  4.0064731e-01
  4.2146945e-01
 -1.8612858e+00
 -4.5963606e-01
  1.1502663e-01
 -9.5529830e-01
  3.1011721e-01
  3.2255535e+00
 -3.6335797e+00
  8.4169227e-01
 -3.3960408e-01
 -6.2984753e-01
 -5.3889449e-03
 -2.4107574e-02
  1.5010500e+00
  2.2923997e-02
 -9.5037585e-01
 -1.7015795e-01
 -1.5783894e-01
  8.6927474e-01
 -2.0202975e-01
  1.1766070e+00
 -1.0420257e+00
 -8.4839541e-01
 -5.9041128e-02
 -1.6074723e+00
  6.2178403e-01
 -1.2133895e+00
  1.3569224e+00
  1.7198770e-01
 -6.5130985e-01
  7.9948044e-01
 -2.9344964e-01
  9.0249383e-01
 -7.9744101e-01
  1.2668730e+00
  5.8473444e-01
  2.0814335e-02
  1.6776815e-01
 -1.9561326e-02
 -9.7344637e-02
 -7.3395920e-01
  1.2570179e+00
 -7.8389809e-02
  6.6354889e-01
 -6.7655444e-02
 -8.3346450e-04
  2.0466300e-02
 -2.4285275e-03
 -1.0954464e-01
 -1.0382400e+00
  1.5261656e-01
 -2.0434894e-03
 -2.1184407e-02
 -4.1518837e-01
 -3.8594322e+00
  2.3002877e+00
 -2.4988122e-01
  2.0044436e+00
  3.0771635e+00
 -2.7944195e+00
 -2.2246685e+00
  2.4288990e+00
 -3.8690281e-01
  1.0161352e-02
 -4.3114536e-02
 -8.2503825e-02
  1.4573172e-01
  1.5508169e+00
 -3.3393919e-01
  4.9274348e-02
  1.3011768e-02
 -8.6101520e-01
  2.4008983e-01
 -3.1664550e-02
  8.3700341e-01
  3.4891620e-01
  1.6756566e+00
  3.4551480e-01
 -1.2090644e+00
  2.5800085e-01
 -1.4844821e-02
  1.5655000e+00
  1.7731313e-01
 -2.9783496e-03
  1.4249693e+00
  1.2502049e+00
  4.0776104e-01
  4.9941346e-01
 -1.5444224e+00
 -7.4196362e-01
 -5.5088651e-01
  3.0764455e-02
 -2.7384667e-02
  1.1336381e+00
  2.9919717e-01
  3.6517066e-01
 -7.6684093e-01
  1.0018930e+00
 -1.7661111e-01
 -6.1679929e-01
 -7.0897698e-01
 -3.6605645e-02
 -5.7269442e-01
 -4.9507934e-01
  3.6927044e-01
 -2.9144760e-03
 -2.8191963e-02
  2.3319672e-01
 -7.4772656e-01
 -9.8677486e-01
  7.0455009e-01
  5.5848444e-01
  2.3525545e-01
  1.4026739e-01
  6.1676729e-01
 -1.4604931e-01
  3.3187068e-01
  1.1849723e+00
 -1.6307278e-02
  3.7281811e-02
 -5.9254652e-01
 -1.7237741e+00
  1.5710229e+00
  4.1578606e-01
  1.5268116e-01
 -2.5400298e+00
 -1.7739241e-01
  1.9983706e-01
  9.3266565e-01
  7.3291820e-01
  2.6753669e+00
 -6.5644562e-01
 -4.3933806e-01
 -1.0766920e+00
  2.8821751e-01
 -2.9509279e-01
 -3.9821562e-01
 -2.6371890e-01
  2.8590435e-01
  1.4952235e+00
  5.4538786e-02
 -7.7149820e-01
  5.3933758e-01
  5.6252223e-01
 -1.3015978e+00
  2.5544265e-02
 -3.0989596e-01
  8.1417412e-02
 -1.6571292e-01
 -2.5943655e-01
 -2.5478855e-02
  9.3387699e-01
  2.7705124e-02
  1.0530231e-01
 -2.4855334e-02
 -4.8947448e-01
 -3.0333500e-02
 -6.8942249e-01
  2.6810190e-01
 -2.7281798e-02
 -1.6662177e-02
  1.8266886e-01
  2.9786080e-02
  3.2776892e-02
 -2.6966643e-02
 -2.3042657e+00
 -1.2298375e-02
  4.9620355e-03
  4.8006079e-03
  2.8273452e-02
  2.0970188e-02
 -3.0047281e-02
  1.4091022e-02
  4.6630077e-02
 -7.4002735e-02
  2.6692135e-02
  8.1487484e-02
  1.2033296e-02
  1.8520437e-02
  1.6950224e-01
  3.5337772e+00
 -1.1087960e-02
 -1.0788295e-02
 -7.3782766e-01
 -3.6258891e-02
 -3.1664539e-02
  4.0304057e-02
  9.2431165e-02
  1.1476120e-02
  3.1969510e-02
 -8.7612435e-02
  6.9205411e-02
  2.7148752e-03
  1.2572953e-02
  7.4553648e-03
  3.7109453e-02
 -3.9877156e-03
  9.1683231e-03
  1.0134535e-01
  8.6902278e-03
 -1.2912624e-01
 -2.3029655e-02
 -2.0931248e-02
 -4.4844467e-03
 -3.3166304e-02
 -1.0539372e-02
 -2.7600493e-02
  1.3679656e-02
  1.5639972e-02
  2.5183536e-02
  5.4898150e-03
 -7.3824726e-02
 -1.7903563e-02
 -8.8583371e-03
  3.5033874e-02
  1.3312329e-01
  1.8021964e-01
  4.4709188e-01
  4.5610887e-01
  6.8782300e-02
 -1.4303175e-01
 -1.6374673e-01
 -4.0586179e-01
  2.6383516e-01
  1.5949171e+00
  5.0661379e-01
  6.5578240e-01
 -7.1729714e-01
  2.9352358e-01
 -8.8622111e-01
 -1.0728749e+00
  6.1598468e-01
  7.9694504e-01
  6.6349733e-01
  8.4324479e-02
  1.4471141e+00
  1.7909501e-01
  8.6819017e-01
 -1.6198152e+00
 -3.8584134e-01
  5.8682644e-01
  1.2346066e+00
 -1.7684293e+00
  2.8173825e-01
  1.4491112e+00
  8.7100291e-01
  4.4427639e-01
  1.3922096e+00
 -1.2749974e+00
 -2.9433376e-01
  1.6535962e-01
 -9.5675212e-01
  1.1262220e-01
  1.3007282e+00
 -2.4262173e+00
  5.8923984e-01
  2.4257774e+00
 -4.0549889e-01
 -1.2966311e-01
  4.0427113e-01
  1.7888446e+00
  2.5426078e-01
  1.0445940e+00
  1.3639278e+00
  9.7412938e-01
  1.3037406e+00
 -2.5317875e-01
 -7.8834045e-01
  2.9837748e-02
 -5.2233863e-01
 -5.6536537e-01
 -1.4466487e-01
 -3.0955546e+00
 -2.7594460e-02
  6.3774365e-01
 -4.9957745e-02
  2.1244991e+00
  1.3945743e-01
 -7.9288632e-03
 -1.2295566e-01
  6.1908168e-01
 -2.2822052e-01
 -1.9992249e-01
 -8.9168406e-01
 -3.3938579e-02
 -2.4733003e-02
  5.7387244e-02
 -1.1242558e-01
  2.3514459e-02
  4.5567118e-03
 -1.9084181e-01
 -9.5462807e-02
 -4.2416793e-01
  2.6800019e-01
 -3.2904327e-01
 -1.1486086e-01
 -4.5122430e-02
  2.0900893e-01
  3.1124353e-01
 -5.1874185e-01
 -6.8789333e-02
 -6.4579648e-01
  3.3992454e-02
 -3.5983691e-01
  6.7636102e-02
  2.4554586e-01
  3.8594130e-01
  2.1877002e-02
  1.7233703e-02
  5.3656149e-01
 -4.4890465e-03
 -4.3071866e-02
 -8.1077707e-04
  1.4560524e-01
 -1.8394364e-04
 -8.2657114e-03
  6.4379871e-02
  5.3896345e-03
  8.2539067e-02
  1.6528204e-01
  1.6581041e-01
 -1.9332318e-02
 -2.8895672e-02
  3.3816314e-01
  7.9772454e-03
  9.7709194e-02
 -2.8674340e-02
 -4.9924562e-03
 -5.6707859e-02
 -6.7406438e-02
 -6.0253446e-03
  3.2387290e-02
  1.0108426e-02
  6.0368195e-02
 -7.0925523e-04
 -1.8149873e-02
  1.6844060e-01
  3.5581581e-02
  2.9119994e-03
  7.8273993e-03
 -1.5024547e-02
 -1.5225252e-02
 -8.5964270e-02
 -1.1605369e-01
 -6.6529480e-03
  7.2696283e-02
  6.7937039e-03
  3.8132798e-02
 -7.3157571e-02
 -3.6730804e-04
  1.5655257e-02
  2.8620281e-03
  3.7986565e-02
 -9.8859770e-03
  5.9183217e-03
 -3.0939668e-02
 -1.1978066e-03
 -2.5543349e-02
  1.3872596e+00
